-1.3882418870925903, -1.9255695343017578, -1.3364874124526978, -1.3350588083267212, -1.3822565078735352, -1.7519919872283936, -1.6138978004455566, -1.5407249927520752, -1.4496455192565918, -1.5568664073944092, -1.6233140230178833, 0.10110326111316681, -0.09569476544857025, -1.0488231182098389, -0.8555983901023865, -0.7197117805480957, -0.8970723152160645, -1.5567655563354492, 0.3522016704082489, 2.0413084030151367, 0.07663878053426743, -1.5526201725006104, -1.093300461769104, 0.48350420594215393, -0.6682746410369873, -0.6375908255577087, -0.10224948078393936, -1.9808270931243896, -1.2340384721755981, -0.3936353027820587, 0.2750711143016815, -1.398477554321289, -1.9409550428390503, 0.34476587176322937, -1.6948857307434082, -0.5762242674827576, -1.3217705488204956, 3.0823090076446533, 2.1004533767700195, 1.8355236053466797, 1.6506171226501465, 1.0219383239746094, 1.7590888738632202, 1.16952645778656, 2.6384878158569336, 2.2039761543273926, -0.9178119897842407, 0.1566881686449051, 1.5247364044189453, 2.236936569213867, 1.3346368074417114, 2.406212329864502, 1.4521042108535767, -0.8585155606269836, 1.2603198289871216, 2.637515068054199, 3.2613604068756104, 0.7962284088134766, -0.20834951102733612, 2.6233396530151367, -2.067890167236328, 1.1072360277175903, -1.3928791284561157
0.9370958805084229, 0.014588704332709312, -0.7738702297210693, -1.2393245697021484, 2.3199706077575684, -0.4878218472003937, -0.05934518948197365, 1.0553370714187622, 0.4326322674751282, 1.144702434539795, -1.1661454439163208, 1.9051388502120972, 0.053641706705093384, 0.48281314969062805, 0.4808264672756195, -0.8610521554946899, 0.42037591338157654, -1.4698323011398315, 2.629925489425659, -0.053511135280132294, 0.649265706539154, -0.14899347722530365, 1.543282389640808, 2.3534059524536133, 1.7202861309051514, -0.20517992973327637, -0.48249685764312744, -0.7489716410636902, 1.7577781677246094, 1.2719587087631226, -0.49017807841300964, -0.27442243695259094, -0.8877904415130615, -0.4829465448856354, -0.46848174929618835, -0.5730029940605164, -0.7917832136154175, 0.7634416818618774, 0.10932254791259766, -0.17546002566814423, 0.7581514716148376, -0.35274800658226013, -1.0638788938522339, 1.0441701412200928, -0.4143936336040497, 0.11667387932538986, -0.8337902426719666, -0.474204421043396, -1.241239309310913, 0.6419190168380737, -0.7855452299118042, 1.1301310062408447, -0.9931392073631287, -0.12941406667232513, 0.4284769296646118, -0.2268005907535553, -0.11200486123561859, -2.2700095176696777, 0.518437922000885, -2.2617268562316895, -2.4047107696533203, -0.6210541129112244, -1.3579963445663452
0.03236808627843857, -0.035794515162706375, -0.40571969747543335, 0.4001748859882355, 0.4785865247249603, -1.2082587480545044, 0.727161169052124, -0.4572576880455017, -0.0865846648812294, -0.09763558954000473, -0.31066495180130005, 0.7702685594558716, 0.18658976256847382, 0.7806488275527954, 1.166778326034546, 1.2995030879974365, -0.060299526900053024, 0.12132945656776428, 0.6158142685890198, -0.6498392224311829, -0.6028403639793396, 0.9062252044677734, 0.26227259635925293, 0.9269894361495972, 0.7919973731040955, -0.7114928364753723, 0.4732562005519867, 2.23791241645813, -1.165519118309021, 1.7506396770477295, -0.05314319580793381, -0.21633075177669525, 0.9335851669311523, -1.7701128721237183, -0.6495294570922852, 1.4627485275268555, 0.951178789138794, -0.12823370099067688, 0.3656315505504608, 0.014585766941308975, -1.4371150732040405, -0.7290961146354675, 0.9711911082267761, -0.2583431303501129, -0.009035403840243816, -0.206904798746109, -0.16601045429706573, 0.031108960509300232, -0.9411018490791321, 0.5226947665214539, 1.4373823404312134, -1.51083505153656, 1.1060495376586914, -0.6897053122520447, -0.16955052316188812, 0.9619984030723572, -1.602961778640747, -0.09047114104032516, 0.06344441324472427, -0.4100123345851898, 0.6825932264328003, -1.1195236444473267, 0.3087051510810852
1.8694491386413574, 0.39846038818359375, 1.8045697212219238, 0.48910996317863464, -0.7560471296310425, 0.42971524596214294, -2.167480945587158, -0.5847548246383667, 2.6285712718963623, -2.3373937606811523, 0.6165634393692017, 2.1218738555908203, 0.07714387774467468, -1.4107117652893066, 2.156726360321045, 1.3450605869293213, 0.9357949495315552, -1.5737837553024292, -0.3302507996559143, -0.9158497452735901, -0.005853984039276838, 0.8499249815940857, -2.465623378753662, 0.15788784623146057, 0.6024256944656372, 1.4570603370666504, 0.1867070198059082, -0.519408643245697, -0.9250396490097046, 1.4965100288391113, -0.3109428584575653, -0.2821093499660492, -0.9091201424598694, -1.0166693925857544, 1.1761339902877808, 0.5304387807846069, 0.29003429412841797, 1.3726152181625366, -0.8629152774810791, -0.07715778052806854, 0.7878066301345825, -0.7169767022132874, 1.285436987876892, -1.3017972707748413, 1.3473360538482666, -2.104588270187378, -0.21468809247016907, -1.6155905723571777, -0.6590135097503662, -0.30209022760391235, -1.4007885456085205, 1.6622363328933716, -1.7324680089950562, -0.01436347421258688, 0.6631464958190918, -0.7193951606750488, 0.7255183458328247, 0.7161008715629578, 0.36569592356681824, 0.3832274377346039, -0.6889228224754333, -1.023889422416687, 0.13172701001167297
-0.9264755845069885, 1.3768510818481445, -0.5296124815940857, 0.21226678788661957, 0.39130863547325134, 1.1162914037704468, -0.5564928650856018, 1.3236852884292603, 3.518033981323242, -1.463018774986267, 1.6266075372695923, -0.6228216290473938, 0.06928375363349915, 1.235020399093628, 0.31684690713882446, -0.18225282430648804, -0.7531546354293823, -0.3755930960178375, 0.03299684450030327, -0.4881918132305145, -0.8297464847564697, 0.3709857761859894, -1.343671441078186, 0.4108779728412628, -1.088618516921997, -0.08071264624595642, 0.6037168502807617, -0.0887761041522026, 0.24291254580020905, -1.1270833015441895, -0.3265098035335541, -2.633892774581909, 0.8448623418807983, -0.5207253694534302, -0.0035502316895872355, -0.25015637278556824, 0.1969113051891327, 0.14741110801696777, 0.44135087728500366, -0.5947102904319763, -1.3524523973464966, -1.6536149978637695, -0.27379822731018066, -0.07551337033510208, 0.7696719169616699, 0.6087437272071838, -0.26794323325157166, 1.3162773847579956, 0.24144317209720612, 1.0415537357330322, 0.5505199432373047, 0.3512953221797943, -0.5264051556587219, 0.5509951114654541, 1.4561054706573486, 0.7763440012931824, 0.8880212903022766, -1.6731717586517334, -1.2060532569885254, 0.9765446186065674, 1.074844479560852, 0.6000605225563049, 0.6596949696540833
-0.9795850515365601, 0.059410568326711655, 0.18103186786174774, 1.8584110736846924, -0.8554109930992126, 1.86089289188385, 0.03467465937137604, -1.1546739339828491, -0.7396177053451538, -0.30316293239593506, -0.534685492515564, 0.25215017795562744, -0.9454726576805115, 0.04137773811817169, 0.6559622883796692, -0.9533700942993164, 0.6900697946548462, 0.3933289349079132, -0.25115156173706055, 0.5510737895965576, -0.2719917893409729, -0.08417388796806335, 0.5728840827941895, 1.185829520225525, -1.3233205080032349, -0.9944865703582764, 2.2326548099517822, 0.6878740787506104, -1.2350491285324097, 0.7136690616607666, 0.8089673519134521, 0.5384091734886169, 0.2900623083114624, -2.2954657077789307, -0.87788325548172, 1.4834340810775757, -1.1746859550476074, 0.38309067487716675, -0.04045837000012398, -0.7830118536949158, -2.842319965362549, -0.0948614627122879, -0.5925836563110352, 1.0230679512023926, 0.8409492373466492, 0.056436844170093536, 0.6919301152229309, -1.8354072570800781, 1.287979245185852, -0.9559062123298645, 2.084176778793335, 2.8603453636169434, 0.5052042603492737, 0.6273894906044006, -0.0012911808444187045, 1.3275951147079468, 0.22685037553310394, 0.32654282450675964, -1.91531240940094, -0.002248514909297228, -0.6320245862007141, -0.6453331112861633, 1.202991247177124
-1.053260087966919, -0.8539185523986816, 1.0617754459381104, 0.29358527064323425, 1.8794265985488892, 0.45829111337661743, -1.1820040941238403, 1.5052111148834229, 0.5960680246353149, -0.9889853596687317, -0.011516738682985306, 1.1984919309616089, 1.6300246715545654, 0.3771706819534302, 1.4722766876220703, -0.6171784400939941, 0.9423434734344482, 0.4822680950164795, -0.6403597593307495, -1.3705281019210815, 0.982125997543335, 0.1384299248456955, -1.8079278469085693, 0.37963181734085083, -1.1040433645248413, -0.6148973703384399, -0.3182423412799835, 0.8726617097854614, 1.206497073173523, 0.13255439698696136, 0.7375168800354004, 0.573636531829834, 1.2180871963500977, 0.3710009753704071, -0.4902142882347107, -1.1952341794967651, 1.000732660293579, -0.6414563655853271, 1.4242969751358032, 0.9480082392692566, -0.1743832230567932, 0.16556860506534576, -0.6907641887664795, 0.8659610748291016, -0.897179901599884, 0.8857787847518921, 0.3537190556526184, 0.3863096237182617, -0.9475219249725342, -1.120601773262024, 0.2036598175764084, -0.3345874845981598, 0.11014074832201004, -0.16424107551574707, 0.7368584871292114, 1.1232236623764038, 2.6166515350341797, 1.0998221635818481, 0.1403161734342575, -0.48435041308403015, -0.1774517446756363, -0.5309345722198486, 0.32660722732543945
0.03963484615087509, 0.33256131410598755, -1.694284200668335, -0.8460777401924133, -0.3731934428215027, 0.12233848869800568, 0.08021478354930878, 0.11687398701906204, 0.21758991479873657, -0.10458771884441376, -0.7351124882698059, -0.4284919500350952, 1.2515637874603271, 0.18661756813526154, 2.1033120155334473, -2.039543628692627, -0.6893191337585449, -1.306073784828186, 0.21860258281230927, -0.4867623448371887, -0.35844719409942627, -1.159724235534668, -0.09705575555562973, -0.9179448485374451, 0.00281929736956954, 0.05510061979293823, -1.1667685508728027, -1.0069595575332642, -0.8804060816764832, 0.699917733669281, -1.1929484605789185, -0.6466183066368103, -0.3653223514556885, 0.572253406047821, 1.2851060628890991, 0.3231636583805084, -3.434373378753662, 0.244037926197052, 0.11058268696069717, 1.4073560237884521, 0.14848291873931885, -1.7027305364608765, 1.1666748523712158, 0.5860660672187805, -0.5131819248199463, 0.8690308928489685, 0.9200752377510071, 0.20756006240844727, 2.027479410171509, -2.0875282287597656, -0.2532888352870941, 0.729705810546875, 0.07306899130344391, -1.3713568449020386, -0.5263912677764893, -0.4084621071815491, -0.11979828774929047, -0.9801748394966125, 0.37856370210647583, -1.2734930515289307, 1.7741564512252808, -1.447216272354126, -0.2884123623371124
-1.935402274131775, 0.5746505260467529, -2.068528652191162, 2.479430675506592, 1.1358675956726074, 0.26939746737480164, 0.4688345789909363, -1.556489109992981, 2.3443751335144043, -0.3266274631023407, 0.7419142723083496, -0.03749315068125725, 1.6710755825042725, -0.20467929542064667, 0.8431997895240784, -2.286245107650757, -1.5389775037765503, 0.3481108248233795, 0.24381022155284882, -0.2705126702785492, 0.5080148577690125, 0.5020032525062561, 1.0355312824249268, 0.0640295073390007, -0.35949209332466125, 0.37775811553001404, 1.1333531141281128, -0.5791102051734924, -0.6729764342308044, -0.06505212187767029, 1.955777883529663, -0.31059542298316956, -0.38504689931869507, 0.6292946338653564, -0.290517121553421, -0.8696973919868469, -1.2068878412246704, 0.5352129340171814, -1.40618896484375, -1.2056444883346558, 0.553180456161499, -1.2503451108932495, 1.692455530166626, -0.24857653677463531, 0.33486032485961914, -0.5990267395973206, -0.34086447954177856, 1.6189098358154297, 1.5470311641693115, -1.4573451280593872, 0.13648386299610138, 0.5179606080055237, 1.3742190599441528, -0.5875498056411743, 1.1512664556503296, -0.8320266604423523, -0.477468878030777, 0.31485265493392944, -1.2009773254394531, -0.3225342929363251, 0.17536231875419617, -0.2422071248292923, -0.14937445521354675
0.7204448580741882, -0.35565808415412903, -0.34267714619636536, 2.5473268032073975, 0.5688450336456299, 0.3943066895008087, 0.99406498670578, -0.31709423661231995, -0.8740394115447998, -2.1518895626068115, 0.017870627343654633, -0.03719088062644005, 1.3193849325180054, 0.5375908017158508, -0.6542584896087646, 1.6968475580215454, 0.2477901577949524, 0.35234591364860535, 0.37801289558410645, -0.7313205003738403, -1.4840184450149536, 0.9185355305671692, 1.6259626150131226, -0.518494188785553, -0.9949920773506165, 0.20590512454509735, 0.512077271938324, -0.9417761564254761, 1.4211750030517578, -0.0586824044585228, 1.6753233671188354, 0.9418409466743469, 0.044681888073682785, 0.966671347618103, -0.49432092905044556, -1.012069582939148, -0.5727742910385132, 1.6246176958084106, -1.1612693071365356, -0.3294992744922638, -0.44968360662460327, 0.7523913979530334, -0.6625337600708008, 1.8769092559814453, -0.17739292979240417, 0.2703651487827301, -0.13492941856384277, -1.2039833068847656, -1.1731680631637573, 0.5801976919174194, 0.5027750134468079, -0.9932177662849426, 0.5960408449172974, -0.30847734212875366, -1.2358533143997192, -0.33943283557891846, 0.2259180098772049, -0.5980474352836609, -0.22263865172863007, -0.9065930247306824, -0.2714327275753021, -0.46002134680747986, -1.5160342454910278
-1.129832148551941, 1.2668997049331665, -1.3868794441223145, 0.1297903060913086, 1.9594510793685913, -0.7822293639183044, 1.6770325899124146, -0.8939090967178345, -0.0804600641131401, 0.1480773538351059, 1.2681608200073242, 1.7680978775024414, -0.5962123274803162, -0.17553524672985077, -0.2932114601135254, -0.9815269112586975, 0.4515908658504486, 0.47551578283309937, -1.356830358505249, -0.304135799407959, 0.38987159729003906, 0.6517655253410339, 0.7914298176765442, -0.4645063877105713, -2.111785411834717, 0.0818033516407013, 1.6187728643417358, -1.4086376428604126, -1.0650124549865723, -0.6770284175872803, -0.4236682057380676, -0.30275610089302063, -0.0363127738237381, 2.2255709171295166, -0.6182551980018616, -0.3948664963245392, 0.06830389052629471, 1.1915241479873657, -0.7628797292709351, 1.2318542003631592, 0.7099981307983398, -0.9717899560928345, -0.10387122631072998, 0.7318810820579529, 0.6464732885360718, -0.5161692500114441, 0.22534237802028656, -1.1390700340270996, 1.5220959186553955, -1.8744453191757202, -1.7251389026641846, 0.7833520174026489, -0.6824817061424255, -2.8831894397735596, 0.899091899394989, -0.25325271487236023, 0.13731256127357483, -0.2894185185432434, 0.3878747820854187, 0.4805373251438141, 0.6452140212059021, -0.08812177926301956, -1.946609616279602
1.001427173614502, 1.6767473220825195, 0.7711360454559326, 0.4971597492694855, 0.8493847250938416, -0.3113798499107361, 0.0971938744187355, 0.17565762996673584, 0.787572979927063, -0.879381000995636, -0.47957441210746765, -1.0867602825164795, 0.8446791172027588, 0.6950420141220093, -0.4048682451248169, 0.01131849829107523, 0.2909303903579712, -0.5135834813117981, 0.6634512543678284, -0.031016813591122627, 0.10056750476360321, -0.7728976011276245, -1.2626203298568726, -0.900578498840332, 1.9513500928878784, 0.9627072215080261, -0.6601376533508301, 0.3419572412967682, -0.33782243728637695, -1.2149816751480103, 1.8577603101730347, -0.12914159893989563, 0.833719789981842, 0.46614333987236023, 0.7145137190818787, 1.3855868577957153, -0.2728576958179474, 0.3955073058605194, -0.6331404447555542, -0.6409183144569397, 0.4558572471141815, -1.1534312963485718, 1.2776634693145752, -1.5003727674484253, 0.9498510956764221, 1.3070327043533325, -0.5296502709388733, 0.8749672174453735, 0.8021359443664551, -0.8241813778877258, 0.1098814606666565, -0.9327003359794617, 0.43162310123443604, -0.17143280804157257, 0.7228824496269226, -0.11820036172866821, -0.6285255551338196, -1.2517197132110596, 0.34414541721343994, -0.46420326828956604, -0.890322208404541, -0.24040630459785461, -0.03579799085855484
0.9026210904121399, -0.5559409856796265, 0.28757935762405396, -0.6760118007659912, -2.223194122314453, -0.5292217135429382, -0.024982480332255363, -0.04728797450661659, -2.480468273162842, -1.204946756362915, -1.0893652439117432, -0.25734516978263855, 0.6744615435600281, 0.18421417474746704, 0.17139612138271332, -1.0386372804641724, 0.5060639381408691, 0.4979087710380554, 0.1064377948641777, 0.6940971612930298, -0.6855145692825317, 0.7793391346931458, 1.1526715755462646, -0.05349258705973625, 0.5017663836479187, -1.412692904472351, -0.6633172035217285, -1.5956562757492065, 0.04124095290899277, 0.9412862062454224, 1.635873556137085, 0.44714054465293884, 1.0296900272369385, -0.6836334466934204, -0.9438550472259521, 1.1015777587890625, 0.939664363861084, -1.117490530014038, -0.02176334150135517, 0.07959441095590591, 1.0466316938400269, -0.7931485176086426, -0.8283724784851074, 0.3218882977962494, -0.010974385775625706, 0.5921862125396729, 1.142693281173706, 0.48070237040519714, -0.24138802289962769, -1.053773045539856, 0.2677936255931854, -0.38114431500434875, 0.1370266079902649, -1.0064959526062012, 0.510064959526062, -0.35586783289909363, 2.242516279220581, 2.0981640815734863, 0.3632528781890869, 0.6344408392906189, -0.9428636431694031, -1.8093637228012085, -0.6036255955696106
-1.7253761291503906, 0.5265112519264221, -0.18056651949882507, -0.5393436551094055, -1.6009725332260132, 1.4993114471435547, -0.5962892770767212, -0.4399149715900421, -3.11757230758667, -0.9326078295707703, 0.9544429183006287, 0.0541905015707016, 2.187141180038452, -0.2860085070133209, -0.13556824624538422, 0.05105118826031685, 0.38099682331085205, 2.134230852127075, -0.10461895912885666, 0.04371006414294243, 0.399414986371994, 0.9395594596862793, 0.15617747604846954, -0.714282214641571, -0.718888521194458, -0.24437902867794037, 0.06888710707426071, 0.3214440941810608, 0.48142650723457336, -1.4031736850738525, 0.586361289024353, -0.08093882352113724, -0.4890270531177521, -2.258094072341919, 0.09178923815488815, -0.48956790566444397, -0.9732838869094849, -0.7530016303062439, 1.248644232749939, 1.4679561853408813, -1.5202351808547974, 1.0157345533370972, 0.8425737619400024, -1.123895287513733, 0.9879817366600037, -0.03927016630768776, -1.1913745403289795, 0.22173331677913666, -0.586016058921814, -0.9588795304298401, -2.73808217048645, -0.2867094576358795, 0.9153751134872437, 2.53385853767395, -0.5273228287696838, 0.2305467277765274, -0.3590726852416992, -0.2204691767692566, -0.39592400193214417, 0.7102789282798767, 1.2607654333114624, -0.6258446574211121, -1.9711506366729736
-0.5270057320594788, 0.920466423034668, -1.7921708822250366, -0.7833277583122253, -0.6069144606590271, -1.2958502769470215, 1.5889843702316284, -0.21535630524158478, -0.8594849109649658, -0.4781922698020935, 0.29056358337402344, 0.9034020304679871, 0.12216755747795105, -1.1263928413391113, 0.8737469911575317, 0.5736026763916016, -0.20549821853637695, -0.4743209779262543, 2.1489624977111816, 0.1315026432275772, -0.705484926700592, 0.4922185242176056, -1.0879220962524414, -1.1077641248703003, -0.35539302229881287, 2.344136953353882, -0.43519821763038635, -0.10569868981838226, -0.5902648568153381, 0.996021032333374, -2.111860752105713, -1.0651509761810303, 1.7595444917678833, 0.8951768279075623, 1.1367535591125488, -0.7245860695838928, -1.5033379793167114, -0.7398484349250793, -0.25138676166534424, -0.2981705069541931, -1.2293423414230347, -1.0959906578063965, 0.6948143243789673, -0.3247937560081482, -0.8478886485099792, 0.16619163751602173, -1.1636523008346558, -0.3916134238243103, -0.8526325225830078, -0.24760976433753967, 1.387426733970642, -0.6101881265640259, -1.5780863761901855, 0.6127487421035767, 1.830862283706665, -0.9107704162597656, -1.2328563928604126, 0.8120474219322205, 0.1424022614955902, 1.3772157430648804, 0.904207170009613, 1.0019879341125488, 1.1041114330291748
1.4898242950439453, -0.6031898260116577, -0.7793557047843933, -0.35573115944862366, 0.21037283539772034, 1.325805902481079, 0.7614404559135437, -2.490967273712158, 1.317386269569397, -1.0138124227523804, 0.5383530855178833, 0.754603922367096, 0.8743090629577637, 0.7756388187408447, 0.7165512442588806, -0.39707136154174805, 0.08411195129156113, -0.19439060986042023, 1.6850275993347168, 0.40385597944259644, -0.5324142575263977, -0.09123905748128891, 0.5065781474113464, 0.6564309597015381, 0.879445493221283, -0.2096160501241684, -0.5222315788269043, -0.5072960257530212, 1.0792003870010376, -0.19616863131523132, 0.00226398603990674, 1.5016456842422485, 0.9934412837028503, 0.2739647924900055, -1.2835785150527954, 0.5224961042404175, -1.5196813344955444, 0.36027851700782776, 0.6690183877944946, 1.577833890914917, -0.6315978169441223, -0.7701582908630371, 0.833519458770752, 0.5639665722846985, 0.6529197692871094, -1.5854952335357666, -1.8935625553131104, -0.3157218098640442, 0.5977612733840942, -0.330398291349411, 1.157938003540039, -0.0013085503596812487, 1.6749950647354126, 1.0756360292434692, 0.2336745709180832, 1.135232925415039, 1.377219319343567, -0.40977275371551514, -2.5068564414978027, -1.5205239057540894, 0.6068045496940613, 1.001161813735962, -0.06752356886863708
1.7977395057678223, 1.6613680124282837, -0.6489049792289734, 0.6859609484672546, -0.5608472228050232, -0.1890888810157776, -0.9440461993217468, -0.49358052015304565, -0.048576466739177704, -0.31815841794013977, -0.14632807672023773, -2.5841288566589355, 2.096644878387451, -0.38565975427627563, -0.3578175902366638, -1.3062950372695923, -0.641459047794342, 0.26764094829559326, -0.27725452184677124, 0.3120351731777191, -1.432098627090454, -1.316105604171753, -0.32886624336242676, -0.18805190920829773, 0.7545555830001831, -1.0817852020263672, 1.0088680982589722, 1.2280998229980469, 0.30188456177711487, -0.9229270219802856, 1.2589308023452759, 0.46239811182022095, 0.7415708303451538, -1.08685302734375, -0.3821849822998047, -0.49558013677597046, 1.4151369333267212, 2.822383403778076, -0.13051016628742218, 1.350287914276123, -1.2866947650909424, 0.6164459586143494, -2.0771610736846924, -0.041571393609046936, 0.20405936241149902, 0.2271338552236557, -0.5564966797828674, -0.186435729265213, -0.15464793145656586, -1.1543428897857666, -1.1684925556182861, -0.47126203775405884, 1.0413156747817993, -0.008434433490037918, -0.2768534719944, -1.149147391319275, -1.707425594329834, 0.2978510856628418, -1.2379653453826904, 1.498045802116394, -0.615432620048523, 0.8862224817276001, 0.34358397126197815
1.0243526697158813, -0.5312997102737427, -0.4140861928462982, 1.2046500444412231, -0.3450968265533447, -1.2035603523254395, 1.671879529953003, 0.6758973598480225, -1.1043765544891357, 0.7306957244873047, 1.2885442972183228, -0.17449598014354706, 0.3531084358692169, 0.2252507209777832, 1.4605872631072998, 0.4159882962703705, -0.3485470116138458, -1.5321654081344604, 1.3978544473648071, 0.2745303213596344, -0.6419945955276489, -0.547725260257721, -1.0193650722503662, -2.2655017375946045, 0.3483933210372925, 0.8787423372268677, -0.5701438188552856, -0.857577383518219, -0.17727817595005035, -0.3486087918281555, 0.6075901985168457, 0.6666314005851746, -0.6810694932937622, 0.06476254761219025, -1.8311858177185059, -0.9226880073547363, 0.6749700903892517, 0.32417434453964233, 0.0017895614728331566, 0.40798628330230713, 1.1587647199630737, -0.8170251846313477, 0.2690902650356293, -0.9400625228881836, 0.15140144526958466, 0.5876703858375549, -0.23703153431415558, 0.8552352786064148, 1.572231411933899, 0.7146597504615784, -1.4505856037139893, 1.6870018243789673, 1.5907065868377686, 0.32359370589256287, -2.2708475589752197, -0.4059389531612396, -0.3992457389831543, -1.2561814785003662, 0.4972918927669525, 0.3403400480747223, -0.004066542722284794, -1.2572956085205078, -1.3947608470916748
0.7252934575080872, 1.281034231185913, -1.907462477684021, 0.4006533622741699, 0.05161076411604881, 1.0328575372695923, -0.6322422027587891, -0.922699511051178, -0.18426910042762756, 1.0752958059310913, 0.24670445919036865, 0.9523878693580627, -0.19174225628376007, 0.8157823085784912, 0.6818327903747559, -0.26844319701194763, -0.12870851159095764, -0.007539266720414162, 0.558681309223175, -0.2116704136133194, 0.6694453358650208, -1.1180936098098755, 0.9764643311500549, -0.7159880995750427, -1.4366910457611084, -0.9809527397155762, -0.46550124883651733, -2.1037845611572266, -0.5132685899734497, -0.5929952263832092, -0.6707575917243958, 0.013551810756325722, -0.06130592152476311, 1.1267666816711426, -1.6055686473846436, 1.8470964431762695, -0.16858670115470886, 0.758454442024231, 0.4201645255088806, 1.1335145235061646, 0.0916740745306015, 1.3742246627807617, -0.5726128816604614, -1.0275306701660156, -0.8297125697135925, 0.5823518633842468, -1.274251937866211, 1.078035593032837, -1.4390406608581543, 0.3236720561981201, -0.655470073223114, 1.9086216688156128, 0.9777411818504333, -0.3397732377052307, -1.1205592155456543, -0.07279783487319946, -0.7300994992256165, -0.09114251285791397, 0.24245287477970123, 0.2931201457977295, 0.14380817115306854, -0.7625064849853516, -0.08658457547426224
6.017075538635254, -1.20265531539917, -1.3106776475906372, -0.4119144082069397, -0.0866718739271164, 0.6864814758300781, 0.5049203038215637, -0.33533135056495667, -1.6512762308120728, 1.5137183666229248, 0.4771333932876587, -0.9323189854621887, -1.5023747682571411, -1.769337773323059, -0.3648837208747864, -0.2927577793598175, -1.6534305810928345, 0.846886396408081, -0.5728355646133423, -0.9447762966156006, -1.2420417070388794, 0.6063334941864014, -0.0010330616496503353, -0.38232770562171936, 0.2024342566728592, -0.6838302612304688, 0.9495410919189453, -1.0703707933425903, -0.5470526218414307, 0.04126925766468048, 0.5397347211837769, 0.4981234073638916, -0.014907456934452057, 0.09060125052928925, 1.2652387619018555, -0.6863352656364441, 1.25037682056427, -1.992234468460083, 0.32357242703437805, 0.482578307390213, -1.1210496425628662, 0.9228047728538513, -0.37952494621276855, 0.8126547336578369, -0.13549810647964478, 1.1608338356018066, -1.0490834712982178, 0.16494300961494446, -1.3905478715896606, 0.1014547124505043, 0.6671093106269836, 1.3169306516647339, -1.0456440448760986, 0.6060641407966614, -0.38135015964508057, 0.5553250908851624, 0.35503703355789185, -0.9674310088157654, 0.3349667489528656, 0.4243243336677551, 0.7622912526130676, -0.4688578248023987, -1.1912578344345093
-0.8792615532875061, 1.7080588340759277, 0.31535109877586365, 0.9077581763267517, -1.4358220100402832, 0.3051147758960724, 1.8005589246749878, -0.32512691617012024, -1.0511682033538818, -1.7336485385894775, -0.04168928042054176, 1.3011071681976318, -1.1353176832199097, -0.8121174573898315, -1.1130478382110596, 1.7433303594589233, 0.3248118758201599, 0.77415931224823, -0.29184040427207947, -0.8811218738555908, 1.4634095430374146, 0.14227135479450226, 0.005520522128790617, 1.2969329357147217, -1.6287002563476562, 1.0606472492218018, -0.31973162293434143, 0.0921168401837349, 1.166953682899475, 1.013689637184143, 1.2128437757492065, 0.3137531578540802, -0.5900125503540039, -0.8562260270118713, 0.02143462933599949, 1.1744534969329834, 1.0340441465377808, -0.8994107246398926, -0.14297087490558624, -2.617784023284912, -0.3458942770957947, 1.5239038467407227, -0.9272074103355408, -0.4263443350791931, 0.06935635954141617, -0.9595315456390381, 0.5929470658302307, 0.5189804434776306, 0.27566778659820557, -1.3426569700241089, 0.47316262125968933, 0.7733118534088135, -0.5504843592643738, 0.3355981111526489, -0.05113783851265907, 0.7228915691375732, -1.0206395387649536, -0.4632524251937866, -1.0079872608184814, -0.3741236627101898, 1.4986141920089722, -0.9715847373008728, 1.9822980165481567
1.1294258832931519, 0.448257714509964, 0.042395513504743576, -1.0140360593795776, 0.5559604167938232, -0.24310435354709625, -0.9925106167793274, -0.8673279881477356, -0.36445313692092896, 1.1920535564422607, 0.26236292719841003, -0.8476628661155701, -1.156505823135376, -0.028145993128418922, 0.10057709366083145, -0.7456914782524109, -0.2728866636753082, -1.6940315961837769, 2.630270004272461, 1.1428815126419067, -0.7633457779884338, 1.8439288139343262, -0.8134008049964905, -0.22442880272865295, 0.030380092561244965, 0.29557549953460693, -0.7744479179382324, -0.17500749230384827, 0.08987350016832352, -0.0712430328130722, 1.0742157697677612, 1.344146490097046, 0.9770362973213196, -0.18402987718582153, -0.2556914687156677, -0.38274499773979187, -0.3327632248401642, -0.47037968039512634, 0.44866952300071716, -0.8497968912124634, 2.1284778118133545, 0.10867223888635635, 0.10702381283044815, 0.11675949394702911, 0.8807070851325989, 1.663770318031311, -2.208205461502075, -1.597814917564392, 1.252504587173462, 0.8701290488243103, 0.22767077386379242, -1.2606725692749023, -0.13213613629341125, -0.0223307516425848, -2.1845855712890625, -1.9394500255584717, -0.23159091174602509, -0.37540894746780396, -1.6203562021255493, -1.09525465965271, 0.7754271626472473, -1.660032033920288, -0.7043547034263611
-0.14073960483074188, -0.6546211838722229, -2.2614564895629883, -1.9879809617996216, -1.216605544090271, 0.5023936033248901, -0.501232922077179, 1.153112769126892, -1.7792470455169678, 1.6926219463348389, 0.16473910212516785, -0.3676062822341919, 0.6065497994422913, -0.293253630399704, -1.0935006141662598, 0.6849461793899536, 1.1917836666107178, 2.414511203765869, -2.753056526184082, -0.9031291007995605, 0.5591943264007568, -0.43049123883247375, 1.3420138359069824, 1.4268330335617065, 0.015229957178235054, 1.2734405994415283, 0.32088232040405273, 1.9763612747192383, 0.13310188055038452, -0.07678958028554916, -0.48566338419914246, 0.21974745392799377, -0.4578881859779358, 1.978002667427063, -1.0371381044387817, 1.4472943544387817, -1.5321201086044312, -0.16481037437915802, 1.4898793697357178, -0.748790442943573, 0.11149060726165771, 0.1851777732372284, -0.3663364052772522, 0.17649655044078827, 0.17604248225688934, 0.8571750521659851, -0.07398328930139542, -0.6365650296211243, 1.6513622999191284, -0.22755643725395203, 0.9447565674781799, -1.420545220375061, 2.808847665786743, -0.5675054788589478, -0.6920801401138306, -0.20165535807609558, -0.8943058252334595, -1.1240079402923584, 0.11665377765893936, -1.0821547508239746, 0.1651051938533783, 1.0133723020553589, 1.3132765293121338
1.5706695318222046, 0.9764752388000488, 0.8431074023246765, -1.512100338935852, -0.42017683386802673, -1.6108647584915161, -1.6359715461730957, 0.8354657292366028, -0.6693075895309448, 0.1284485012292862, 1.1693079471588135, -0.2982627749443054, 0.21836519241333008, 0.5728697776794434, 0.6892704963684082, -0.10758274793624878, -0.48316168785095215, 0.3778064548969269, -0.43220236897468567, -1.3422647714614868, -1.492915391921997, -0.7566320896148682, 0.3192049264907837, 0.16627128422260284, -0.0353800468146801, 0.054059289395809174, -2.650092124938965, -0.2859800457954407, -0.38196906447410583, -0.5839223265647888, -1.6051136255264282, -1.0918649435043335, 1.443034052848816, 0.6379654407501221, 1.283281922340393, 0.032260648906230927, -1.6208157539367676, -0.2648865580558777, -0.062094803899526596, 0.22341476380825043, 0.014553908258676529, -0.173569455742836, -0.20338134467601776, -0.41322463750839233, 0.6286765933036804, 2.0215866565704346, -0.7696621417999268, -0.9818946719169617, -1.380142331123352, -0.5373436212539673, -0.518780529499054, -0.6616578698158264, 1.694909930229187, -0.5598260760307312, 1.2785086631774902, 0.9623025059700012, -1.8193254470825195, 0.5509104132652283, -1.2604619264602661, 0.455526739358902, -0.03480271250009537, -1.0312561988830566, 0.708831787109375
0.2974991798400879, 0.881447970867157, 0.10231698304414749, -0.01219436340034008, 0.18807180225849152, 1.534155249595642, -0.20360618829727173, 0.14858096837997437, -0.7579455971717834, -0.3089153468608856, -2.390991687774658, -0.31261759996414185, 0.060707736760377884, -0.06031084805727005, 0.37283462285995483, -1.2976343631744385, -1.2812905311584473, -0.9045154452323914, -0.1556551307439804, -0.11345762014389038, -0.4161444306373596, 1.0795438289642334, -1.9864919185638428, -1.7212034463882446, 1.7238692045211792, 0.7154548168182373, 0.8330316543579102, 0.31415367126464844, 1.0208815336227417, 0.5132874846458435, -0.3422802984714508, 0.4288513660430908, 0.30682042241096497, -0.28645938634872437, 1.920509696006775, 0.17409561574459076, 0.16523368656635284, -0.13334102928638458, -0.2848527133464813, 0.39577028155326843, -0.17662712931632996, 0.3121625781059265, 1.9200191497802734, 0.6150810718536377, 0.6211310029029846, 0.5459268689155579, -0.13787226378917694, 2.1500113010406494, 0.11910069733858109, 0.2525270879268646, 0.04845224693417549, 2.911386728286743, 1.1242328882217407, -0.07487644255161285, 0.40194860100746155, -0.3773851990699768, -2.115609884262085, 0.8184865713119507, -1.1841975450515747, 0.0831674188375473, 0.1653842329978943, 1.6200449466705322, -0.6735717058181763
0.9476456046104431, 0.41858744621276855, 0.12940120697021484, 0.18970854580402374, -0.15892671048641205, 0.8096551299095154, -0.2712331712245941, 0.37939468026161194, 1.9171028137207031, -0.23330135643482208, -0.8122920393943787, -0.5138499140739441, -0.34535619616508484, 0.5912245512008667, 0.1453799158334732, -1.8646513223648071, 1.0128872394561768, 0.056169867515563965, -0.8433899879455566, 0.13705554604530334, 1.6357994079589844, 0.168929323554039, 1.2384063005447388, 1.6109613180160522, 1.1043922901153564, -0.6812986135482788, 0.6096705794334412, 0.2580356001853943, -0.3632187247276306, 0.16145049035549164, 0.8224673271179199, 1.164567470550537, 0.15602008998394012, 0.37843164801597595, -1.7820979356765747, -1.0249100923538208, 0.7929978370666504, 0.5150063633918762, -0.5459301471710205, -0.5627927184104919, -1.591676115989685, 0.2792075276374817, -0.06270240992307663, 2.34761118888855, -1.6886427402496338, -0.8920941948890686, 0.235856831073761, -0.046159204095602036, 0.8230718374252319, -0.9358567595481873, -0.7939361929893494, -0.4296244978904724, 1.090622901916504, -0.9916837811470032, 0.17784835398197174, -0.11150413006544113, 0.2849685251712799, -0.7882779240608215, -0.3991105258464813, 0.1132136732339859, 0.03351271525025368, 1.042974829673767, 0.8654881715774536
-0.854049026966095, 0.2385043203830719, -1.5087121725082397, -0.3555860221385956, 0.2707792818546295, -0.11829743534326553, 0.1034766137599945, 0.7593415379524231, -0.1738651841878891, 0.7633697390556335, -1.5200339555740356, -1.1112030744552612, -0.6560885906219482, -0.3459120988845825, -0.495175838470459, 1.2121471166610718, 0.8895033001899719, -0.8416303396224976, -1.4820308685302734, -0.18905383348464966, -0.9658528566360474, -0.428903728723526, 0.43973711133003235, -0.7556220889091492, 1.0688356161117554, 1.2816640138626099, 0.41197869181632996, -0.6021872758865356, -0.13899992406368256, -0.2577859163284302, -0.5964123606681824, 0.7094995975494385, -1.0901094675064087, -0.5400488972663879, 0.9563656449317932, 0.9317455887794495, -0.21502584218978882, 1.4807411432266235, 0.10812965780496597, -0.18803013861179352, 1.5531303882598877, -0.9160801768302917, -0.8957439661026001, -1.401419758796692, 1.0523124933242798, 1.6592696905136108, 0.1246456503868103, 0.2653418481349945, -0.6945450901985168, -0.6749488115310669, 1.0361361503601074, 1.9968922138214111, -1.1352698802947998, 0.0019060395425185561, 0.9907740950584412, 0.03739209100604057, -1.1544654369354248, -0.8118640184402466, -1.5207924842834473, -0.18543972074985504, 0.5619379878044128, -0.495063453912735, 1.027008295059204
0.5301646590232849, -1.0765942335128784, -0.36803770065307617, -0.4450203478336334, 0.4000619351863861, 0.5147202014923096, -0.646155595779419, -1.4606544971466064, -0.38563281297683716, -0.14013688266277313, -0.12111464142799377, -0.12488508224487305, 0.338533878326416, 0.579099714756012, -0.01860039122402668, 1.626845121383667, -0.474794864654541, -2.261640787124634, 0.0300695039331913, -1.2723208665847778, 3.1754817962646484, 0.5278003215789795, -0.39139071106910706, 1.1871224641799927, 0.5739808678627014, -0.3671875, 2.0148253440856934, 1.9094394445419312, -2.050503730773926, -0.8527810573577881, 2.27278995513916, -1.4925752878189087, 0.29187729954719543, -0.9011894464492798, -1.9550538063049316, 0.4589044153690338, 1.6832605600357056, 0.035625286400318146, 0.5123205184936523, -0.9621064066886902, -3.966357469558716, 0.7764120697975159, 0.2592080533504486, 0.3805146813392639, -0.20663508772850037, 1.9864506721496582, -2.082899808883667, -0.516396701335907, 0.05680275335907936, -0.9500685334205627, -0.5623111128807068, 0.01079845242202282, -0.43189284205436707, 1.1682466268539429, 1.593290090560913, -0.2544485926628113, -0.992472231388092, 1.4527660608291626, 0.3631717264652252, -0.6715708374977112, 2.192540407180786, 0.6803566813468933, -0.7705496549606323
1.1170783042907715, -1.546898365020752, -0.6970669031143188, 1.5250529050827026, 0.4490993916988373, 0.8458845615386963, 0.4867536723613739, 1.9517031908035278, 0.20999322831630707, 1.8521236181259155, 0.9827999472618103, -0.032457515597343445, -0.5576053857803345, 0.03767288848757744, -1.4885345697402954, 0.7136113047599792, -1.5651369094848633, -1.3756208419799805, -0.941062867641449, 0.7773246169090271, -0.6857680678367615, -0.5268305540084839, -0.276584655046463, -1.0308080911636353, -0.6580837368965149, 0.9232344031333923, -1.1111596822738647, 1.520864486694336, -0.5158316493034363, -0.33045023679733276, -0.4933371841907501, -0.5721337199211121, 0.9307894110679626, -0.8426432013511658, 0.5809073448181152, 0.4095389246940613, 0.30826520919799805, -1.1557180881500244, 0.04705138877034187, 0.8867779970169067, 0.023209279403090477, 1.4108840227127075, 0.4754999279975891, 0.5488566756248474, -1.5188771486282349, 1.356723666191101, 1.9143532514572144, -0.5500662922859192, -0.8260159492492676, 1.0695571899414062, 2.503300189971924, -1.0481817722320557, -0.005979033187031746, 0.00722413370385766, -0.01331180427223444, -0.24237459897994995, -1.5168039798736572, -0.36335206031799316, 1.4255092144012451, 0.14591968059539795, 1.2139447927474976, -0.36301735043525696, 0.6352905631065369
-1.2894387245178223, 1.8369286060333252, 0.48858842253685, -1.0730804204940796, 1.1115761995315552, -0.5495702028274536, 0.11382107436656952, -0.6016889810562134, 1.354579210281372, -0.3072951138019562, 1.1467281579971313, -0.5249066948890686, -2.0307490825653076, 1.4392870664596558, -0.5019428730010986, -0.48222750425338745, 0.7826821804046631, 1.0690077543258667, 0.38371604681015015, -0.49585142731666565, -1.2675997018814087, -0.32961955666542053, 0.9473550915718079, -1.0560493469238281, 0.5887810587882996, 0.810925304889679, -0.5621257424354553, -0.05054286867380142, -0.7997136116027832, 0.9742575883865356, -1.7512638568878174, -0.36074426770210266, 0.7363516688346863, -0.8000773191452026, -1.4170899391174316, -0.9970582723617554, -0.14293168485164642, 1.7049928903579712, -1.2908449172973633, 1.8329445123672485, 1.2882081270217896, -0.46468257904052734, 0.8396720886230469, 1.207987666130066, -0.4413646459579468, 0.4439548850059509, -0.43500447273254395, -1.0432102680206299, -0.8161095976829529, -0.3480197787284851, 1.35889732837677, 0.19443485140800476, 0.07900585234165192, 1.3456007242202759, 0.04535427317023277, -0.05653871223330498, 1.708493709564209, -0.32581827044487, 0.0073116738349199295, -0.5683900117874146, 0.7199437022209167, -0.366868257522583, -1.0568811893463135
-0.7111514806747437, 0.04810302332043648, -0.6442879438400269, 2.265638828277588, -0.08031748235225677, 0.7910844087600708, -1.2006862163543701, -1.1789389848709106, -0.6565495729446411, -0.9091461300849915, -0.9263162612915039, -2.162001609802246, 0.7588393092155457, -0.16633686423301697, 1.2239086627960205, -0.12911921739578247, 0.2354482114315033, -0.43904417753219604, -1.0651237964630127, 0.855228066444397, 1.7452858686447144, 1.194446325302124, -0.9021209478378296, 0.032705578953027725, 0.625905454158783, -0.8221599459648132, 1.1407849788665771, -0.7552533149719238, 0.42995205521583557, -1.3421111106872559, -0.2016405612230301, 1.0972222089767456, -0.05018384009599686, 0.09852248430252075, -1.1540342569351196, -1.1636630296707153, 1.7360975742340088, -1.3522111177444458, 0.08179546147584915, 0.765163004398346, 0.8232617378234863, -0.3040013015270233, -0.25973159074783325, -0.34103694558143616, 3.551316022872925, 1.5222104787826538, -0.6383451223373413, 0.49361225962638855, 1.05045747756958, 0.3451640009880066, 0.45320841670036316, -1.4940465688705444, 0.17830297350883484, 0.8586670160293579, -0.19973744451999664, -0.6387559771537781, -0.668479859828949, 0.5826826691627502, 0.6819899678230286, -1.5589476823806763, 0.41858813166618347, -0.10586752742528915, 1.0221575498580933
0.7128314971923828, 0.06465325504541397, -0.19203118979930878, 0.5748888850212097, -1.772839069366455, 1.625815987586975, -1.7259985208511353, -0.2687114477157593, 0.36165329813957214, 0.11585841327905655, 0.411116361618042, 0.9709880948066711, 0.908671498298645, 0.3009420931339264, -0.13043628633022308, -0.7514055371284485, -2.082606315612793, 1.2494518756866455, 0.15449164807796478, -0.304615318775177, 0.5437664985656738, -0.7541693449020386, 0.4073479473590851, 0.29212626814842224, 1.6927173137664795, 0.2565602660179138, -0.21853354573249817, 0.9081934690475464, -0.5756466388702393, 0.30774059891700745, 0.1859566867351532, -0.660204291343689, 0.10025814920663834, -1.6504731178283691, -0.6919927000999451, 0.3285452127456665, -2.0727365016937256, -1.0038832426071167, -0.5623796582221985, -0.9819324016571045, 0.4295450747013092, -2.2253384590148926, 1.0184301137924194, -1.2416716814041138, -0.8234474658966064, -0.021837560459971428, -1.4472451210021973, -0.7490487694740295, -0.9691422581672668, -0.047931063920259476, 1.524415373802185, 0.4317499101161957, -0.7510100603103638, -0.3600428104400635, -1.2643476724624634, -1.1038336753845215, 0.8743001818656921, 0.01761491782963276, 0.2037082016468048, -0.17241832613945007, 0.12023671716451645, -0.5210898518562317, 0.01834445632994175
2.2872819900512695, -1.6675114631652832, -0.8938024640083313, -0.5142669677734375, 0.1407691240310669, -0.332217276096344, -0.7605118155479431, 3.3984861373901367, -0.4627859592437744, 0.24115656316280365, -0.5080204606056213, 0.6891792416572571, -0.651835560798645, -0.8273696303367615, 0.49300700426101685, 0.7886138558387756, 0.24045273661613464, 1.1863563060760498, 0.39687079191207886, -0.22300872206687927, 2.1151788234710693, -0.30877453088760376, 0.8398932218551636, 0.8330739140510559, -0.990818977355957, -0.08318018913269043, -0.045928336679935455, -0.5920542478561401, -0.42498406767845154, -0.27368202805519104, 1.2748911380767822, 1.467564344406128, 0.3036031126976013, 0.32205814123153687, 0.729781448841095, 0.9336102604866028, 0.053936462849378586, 0.6357883214950562, -0.6070107817649841, 1.7269742488861084, -0.4258492887020111, 0.016044529154896736, 0.8268649578094482, 1.5587079524993896, -0.22267602384090424, -0.30286911129951477, 0.22614529728889465, -0.7950518727302551, 0.6211800575256348, -0.6924541592597961, -1.2410645484924316, -0.6678342223167419, 2.1337735652923584, 1.269910454750061, 1.5317217111587524, 0.594722330570221, 0.2801504135131836, -1.0057237148284912, -0.4295817017555237, -1.6911276578903198, 1.2560405731201172, -0.2251473218202591, 1.4277122020721436
-0.11748798936605453, 0.6540487408638, -0.6572785973548889, 0.09244293719530106, -1.2999380826950073, -0.06508684158325195, 1.565629005432129, 2.8096253871917725, 0.25395768880844116, -0.17567677795886993, -1.1880755424499512, 0.5854604244232178, 0.7078701853752136, -1.2862359285354614, -1.4678739309310913, -0.23136423528194427, 1.1853078603744507, -1.1254427433013916, -0.0807063952088356, 0.6286552548408508, -0.15442125499248505, -1.5355101823806763, -0.7109466195106506, 1.3664186000823975, -1.0060673952102661, -1.205936312675476, 1.531862497329712, -0.7524151802062988, 1.4237381219863892, -1.2457897663116455, 0.3534834682941437, 2.020596504211426, -0.8432703018188477, -0.6584253311157227, 1.443305253982544, -0.23078955709934235, -1.777176856994629, -1.3782033920288086, -0.27031049132347107, -0.0434117317199707, -1.0547760725021362, 0.9722422957420349, 0.22001901268959045, 1.0946176052093506, 0.6069180369377136, 2.0568974018096924, -0.20671747624874115, 0.4301839768886566, 0.4485107958316803, -1.378960132598877, -0.835077702999115, 0.9732376337051392, -0.810958206653595, 0.6892309188842773, 0.011410056613385677, 0.08647295832633972, 0.16066613793373108, 0.020618582144379616, -0.5344904065132141, 0.5219513177871704, 0.1167341098189354, -1.5229876041412354, 0.637324333190918
1.9536211490631104, -0.3585038483142853, 1.0647809505462646, 1.2300729751586914, 0.6733874678611755, 2.4220895767211914, -0.28503143787384033, -0.4634944200515747, 1.894891619682312, -0.33845359086990356, 0.9829037189483643, -0.16229139268398285, 0.20981021225452423, 2.128382921218872, -1.4309483766555786, -1.0426493883132935, -0.14631491899490356, 0.8329021334648132, -0.7109960913658142, 0.5366998910903931, -0.6247421503067017, 0.43909788131713867, -0.19391591846942902, 0.6051796674728394, -0.7550726532936096, 0.69794100522995, 1.0593818426132202, 0.258771687746048, 0.5448710918426514, -0.7649890780448914, 1.3069958686828613, 0.18995065987110138, -0.0029522799886763096, 1.1079307794570923, 0.9680784940719604, -0.32764729857444763, 0.9361929893493652, -0.6137528419494629, -1.4728631973266602, -1.567402720451355, 0.028687069192528725, 1.2774696350097656, 1.6643022298812866, 0.7597986459732056, -1.3660707473754883, -1.368675708770752, 0.03868561238050461, 0.5778898596763611, -1.5625535249710083, 0.2734760046005249, 1.3872148990631104, 0.6464375853538513, -1.4617539644241333, -0.8930845260620117, 1.7154253721237183, 0.4301081895828247, -0.24739935994148254, -0.4005190432071686, -0.37288525700569153, 0.13612788915634155, 0.536562979221344, 0.4651675224304199, -0.05547904595732689
0.5438807606697083, 0.6794376969337463, 1.530470371246338, -0.700965166091919, 0.21671149134635925, 0.8567624092102051, 1.8019191026687622, -0.3446638286113739, -0.3143046796321869, 0.45272043347358704, -0.026881126686930656, -0.7387702465057373, -0.6537110805511475, 1.0949422121047974, -0.5132864713668823, 1.9958009719848633, 0.38092657923698425, -0.22499588131904602, 1.1825902462005615, -2.393187999725342, 0.6788240671157837, 1.2250949144363403, 0.4849221110343933, -2.1857690811157227, 1.556908130645752, 0.9342935681343079, -0.7003616690635681, -0.8353622555732727, 1.3515270948410034, 0.6758290529251099, -1.0412695407867432, -1.020424246788025, 0.5561408400535583, 0.562578022480011, 0.36260613799095154, -0.6640923023223877, -0.5833773016929626, 0.828382670879364, 1.0846874713897705, 1.3222736120224, -0.11739468574523926, 0.4037747085094452, -0.8027374744415283, -0.5324884653091431, 0.5160102248191833, 2.4551470279693604, 0.33406466245651245, -0.9227062463760376, 0.058842383325099945, 0.8494337201118469, -0.08499252051115036, -0.42714959383010864, -0.2635231018066406, -0.6409794688224792, 2.292325258255005, 0.9058881998062134, -1.7578599452972412, 1.4000935554504395, 1.0068283081054688, 0.7640856504440308, 1.520790934562683, 0.4771980047225952, -1.6790344715118408
-0.6437849998474121, 0.48736515641212463, -0.46999040246009827, 0.8865591883659363, 0.6478168368339539, 0.36874207854270935, -0.002684313803911209, 1.3383207321166992, -0.7520658373832703, -1.175905704498291, -0.04766404256224632, 0.7972809672355652, -0.042736247181892395, -0.4425821900367737, -0.5870653390884399, 1.5838640928268433, -0.8620254993438721, 0.41860735416412354, -0.03940419852733612, -0.2920978367328644, 1.5072860717773438, -2.5227839946746826, -0.9255601167678833, -0.6873837113380432, -0.2119290977716446, -1.2836843729019165, 0.3537774085998535, 1.610465407371521, -1.1130648851394653, -0.30562520027160645, -0.17252153158187866, 0.7762887477874756, 0.09970355033874512, 1.4907628297805786, -0.06301426142454147, 0.14828865230083466, -1.29695725440979, 0.3571598529815674, 0.08794650435447693, 0.6774629354476929, 0.34152480959892273, 0.7574297785758972, -0.5364051461219788, 0.034103699028491974, 0.5025195479393005, 0.8139928579330444, -0.10586228966712952, -0.11234695464372635, 1.6745022535324097, 1.0435163974761963, 0.4664691388607025, -1.1864880323410034, 0.3030398488044739, 0.8577929139137268, 1.9275513887405396, -0.8246245384216309, -0.3122280240058899, -0.7007834911346436, -0.766063928604126, 0.34629306197166443, 0.3558501601219177, -0.5404171347618103, -0.27840039134025574
3.0811243057250977, -0.7780016660690308, -0.6225660443305969, -1.33969247341156, -0.02674005925655365, -0.6420851349830627, -1.5615265369415283, -1.3337440490722656, -0.03483327105641365, -1.577101230621338, -0.16408725082874298, -0.5526244044303894, -0.3282207250595093, -1.657557725906372, -0.03908439353108406, -0.6112646460533142, -0.7215942740440369, -1.1801272630691528, -0.7941378355026245, 0.06193755939602852, -1.0629339218139648, -0.9597699046134949, -0.48211419582366943, -0.6314029693603516, -0.6108419895172119, -0.3590407371520996, -1.2240506410598755, -0.2154243439435959, -0.12177374958992004, -0.3331063985824585, 0.09062579274177551, -1.1221644878387451, -0.26523277163505554, -0.9567084312438965, -0.2444552630186081, 0.1088743507862091, -0.28675758838653564, -0.8310882449150085, 1.4304401874542236, 2.084907293319702, 2.894287586212158, -1.4386359453201294, 0.28210151195526123, 1.410022258758545, 0.19926217198371887, 2.7600302696228027, -0.38517990708351135, 1.3554389476776123, 2.761772394180298, 1.9016072750091553, 4.142383575439453, -0.48456019163131714, 1.34198796749115, -0.40887922048568726, 3.1908023357391357, 3.4818098545074463, 3.7688705921173096, 0.5629622936248779, 2.147960901260376, 0.9000391960144043, -0.8601083159446716, 2.181511878967285, -0.3152604103088379
-0.2992304861545563, 0.6496681571006775, 0.8809192776679993, 0.7071148753166199, 0.8863012790679932, -0.8316611647605896, 0.10826832801103592, -1.327290654182434, 0.6145037412643433, 1.0376209020614624, 0.41812390089035034, 0.8016084432601929, -0.8551397919654846, -1.0010133981704712, -0.08376023918390274, 0.14486853778362274, -0.06426651775836945, -0.45477890968322754, 0.046195242553949356, -0.05915779247879982, -0.6454009413719177, 0.18281786143779755, 1.5127519369125366, -1.0780961513519287, -1.272801160812378, 1.5691473484039307, 0.7599674463272095, -1.002007246017456, -0.6340481042861938, -0.21881502866744995, 1.0344752073287964, 0.7526368498802185, -0.6975045204162598, 1.1795074939727783, -1.1239386796951294, -2.367100477218628, -1.3586879968643188, 2.035318374633789, -0.15391840040683746, -0.2060544341802597, -1.0923621654510498, 4.51694917678833, -0.5269255042076111, -0.2064332515001297, 1.0179599523544312, -0.3850043714046478, 0.9516130685806274, 0.44750624895095825, 3.3402979373931885, -0.409898579120636, 0.2872159779071808, 3.2127270698547363, -0.4829963147640228, -0.5756098031997681, 1.0762852430343628, 0.7640386819839478, 0.18171370029449463, 2.739011526107788, 0.8804680705070496, 0.517962634563446, 1.1644742488861084, 1.1233711242675781, -0.23899251222610474
-0.13853125274181366, -2.077011823654175, -0.35578224062919617, -1.493813395500183, 0.02109760232269764, -0.6115161180496216, -0.40011513233184814, 0.3448828458786011, -1.492356538772583, -0.6455729007720947, -1.0602341890335083, 0.05398913100361824, 0.3444957733154297, -0.30582982301712036, -0.3712350130081177, 0.027461133897304535, 0.6145260334014893, 0.40959009528160095, -0.9235338568687439, -0.07214187830686569, -0.4909392297267914, 0.04900926351547241, 0.549562394618988, -0.4704347550868988, 0.7469921708106995, 0.5985047221183777, -0.4671056270599365, 0.7323084473609924, 0.09500295668840408, -0.011389905586838722, 0.16011692583560944, 0.5422670841217041, 0.7225980758666992, 0.2901141345500946, 0.5562190413475037, 0.3669537901878357, 0.3956904411315918, 2.8165769577026367, 0.5503594279289246, 0.8094927072525024, -1.5359691381454468, 3.4138824939727783, 0.23145794868469238, -0.2789503037929535, 3.531259775161743, 1.5564544200897217, 0.5217664241790771, 2.1472935676574707, 0.04878896102309227, -2.364278793334961, -0.23729152977466583, 3.6752004623413086, -0.1916336715221405, 0.49330905079841614, 1.5446454286575317, -1.2304489612579346, 2.0422940254211426, -0.14717882871627808, -2.1377859115600586, 0.01707245036959648, -0.1858987659215927, -0.26073575019836426, 0.7205632925033569
5.226025581359863, -0.3075066804885864, -0.6184858083724976, -0.4967992901802063, 0.09838119894266129, -0.5166109204292297, -0.23478582501411438, -0.6125483512878418, -0.4705178439617157, -0.5690557956695557, 0.04124421253800392, -1.7853416204452515, -0.8623209595680237, -1.2501581907272339, -1.210546851158142, -0.46454477310180664, -0.4742039144039154, -0.3519245982170105, -0.34365376830101013, -0.49623146653175354, -1.626001238822937, -0.7369831204414368, -0.9884901642799377, -1.6954594850540161, 0.26521897315979004, -0.19457794725894928, -0.7521312236785889, -0.24633657932281494, -0.3247053325176239, -1.0354636907577515, -0.7096666097640991, -1.4450247287750244, 0.24685035645961761, -1.0109730958938599, -0.3226427733898163, -1.3512588739395142, -1.3683881759643555, 0.3294101655483246, -1.3997091054916382, -0.36169055104255676, -0.15389204025268555, 3.249356985092163, -0.7623496055603027, -0.875259280204773, -0.42156100273132324, 2.5591533184051514, -0.048619091510772705, -0.09822238236665726, 0.5870475769042969, 0.3761197030544281, -0.8085525035858154, 2.4502525329589844, 0.212060809135437, -0.8152226209640503, 1.0131338834762573, 1.125157117843628, -2.253265380859375, -0.16200901567935944, -2.100604295730591, 0.41247162222862244, -0.6366272568702698, 0.49820375442504883, -0.6733957529067993
4.85875940322876, -0.36069363355636597, -0.6880566477775574, -0.7441038489341736, -0.6061001420021057, -0.7577853798866272, -0.8738967776298523, -1.008196234703064, -0.5083547830581665, -1.7676039934158325, -0.5133455991744995, -0.6946467757225037, -0.2781614363193512, -1.069859266281128, -0.4527418911457062, -0.5254137516021729, -0.6498488187789917, -1.4039170742034912, -1.3110096454620361, -0.8720433712005615, -0.7953176498413086, -1.002875566482544, -0.7950190305709839, -0.8080141544342041, -0.5402962565422058, -0.48206081986427307, -1.1238539218902588, -0.4454966187477112, -0.3463904857635498, -0.8298249244689941, -0.6450083255767822, -0.5703995823860168, -1.2216295003890991, -0.9016849994659424, -0.4211016595363617, -0.5220909714698792, -0.5697354078292847, 2.7354421615600586, -0.336103618144989, 1.7044248580932617, 3.3633196353912354, 2.223594903945923, 0.6861625909805298, 0.13777528703212738, -0.24392260611057281, 0.3380119204521179, -1.045007586479187, -0.2955010235309601, 2.3738725185394287, 1.849769949913025, 3.3007633686065674, -0.37187308073043823, 0.7123319506645203, -0.36001792550086975, 3.882951021194458, 2.7873992919921875, 2.1709327697753906, -1.123435616493225, 1.4371999502182007, 0.06656508147716522, 0.665241003036499, 0.9723957180976868, -2.395676851272583
4.309213638305664, -0.44139108061790466, -0.8858696222305298, 0.6157078146934509, -0.713511049747467, -1.4730762243270874, 0.8229538202285767, -0.21966905891895294, 0.4732903838157654, -1.3801045417785645, -0.40468692779541016, -0.1683225780725479, -0.28917235136032104, -0.3453170359134674, -0.9265305995941162, 0.1849084496498108, -0.2604784369468689, -0.4404739439487457, 0.021206878125667572, -0.3526485860347748, 0.044096216559410095, -0.30539470911026, -0.7420240044593811, -0.05994173884391785, 0.33002907037734985, -0.3612450659275055, -2.2761380672454834, -0.5622227787971497, 0.1440330445766449, 0.5203453302383423, 0.12549933791160583, 0.8612164855003357, 0.08168024569749832, -0.10086185485124588, 0.3276751935482025, -0.9704758524894714, -0.2353026419878006, 0.925961971282959, 0.44791847467422485, -0.6955982446670532, -0.05627192556858063, 2.2014050483703613, 0.9396992921829224, -0.25157397985458374, 0.37171196937561035, 1.9194612503051758, 0.8597171306610107, -0.31579914689064026, 0.3003358840942383, -0.26496660709381104, -1.4846924543380737, 3.3751885890960693, -0.557793915271759, -1.2711091041564941, 1.9049968719482422, -1.9596489667892456, 1.6183902025222778, 1.399821400642395, 0.660480260848999, 0.2798125147819519, -0.9785555601119995, 0.36126840114593506, 0.09254249930381775
4.113066673278809, 0.3160797357559204, -0.37092864513397217, -0.23567861318588257, -0.4499592185020447, -0.8639619946479797, -0.27824661135673523, 0.19276340305805206, -1.0433276891708374, 0.07689450681209564, -0.16282035410404205, 0.7383075952529907, -0.06289803236722946, -0.4631848931312561, -0.6100348234176636, -0.31325197219848633, 0.05826617777347565, -0.6109557151794434, -0.19875776767730713, -1.0039057731628418, -0.49165916442871094, -1.100408911705017, 0.4611372649669647, -0.9595474004745483, -2.7331814765930176, -0.6466231942176819, 0.26660826802253723, -0.10000575333833694, -1.1400108337402344, 0.7390404343605042, -0.21320103108882904, -0.9215543866157532, 0.03878847882151604, -0.643915593624115, -0.2532306909561157, -0.061568159610033035, -2.1707193851470947, 2.069241523742676, -1.931549072265625, 0.5705193281173706, 0.1892234832048416, 2.5238194465637207, 0.08387566357851028, 0.5979375839233398, 2.956836223602295, 1.0652996301651, -0.4324280917644501, -0.043548259884119034, 0.3644401729106903, 0.020584862679243088, -0.6856783628463745, 1.4732661247253418, -1.6549458503723145, -0.4480780065059662, 0.5485125184059143, -0.9658460021018982, 0.6356862187385559, -0.12312297523021698, 0.3095731735229492, -1.1538195610046387, 0.0967615619301796, 0.5335206389427185, -0.612727165222168
4.061347961425781, 0.07644251734018326, -0.4573603868484497, -0.4199901223182678, -0.9528837203979492, -0.6816730499267578, -0.13894447684288025, 0.010124887339770794, -0.30683472752571106, 0.33628422021865845, -1.0213435888290405, -0.06260015070438385, 0.09324124455451965, -0.6344449520111084, -1.1099430322647095, -0.2707993686199188, -1.2748241424560547, -0.21740011870861053, -0.08927393704652786, -1.0167111158370972, 0.35862505435943604, 0.39027073979377747, -0.08084433525800705, -0.6302550435066223, -0.04388836398720741, -1.111507773399353, -0.35929468274116516, -0.2824769914150238, -0.6494768857955933, -0.2746383845806122, 0.037872202694416046, 0.41386479139328003, -1.4117796421051025, -1.4600467681884766, 0.14846459031105042, -2.3087828159332275, -0.5938804745674133, 4.851151943206787, 0.4854872226715088, -0.652127206325531, -0.2752746641635895, 5.503262996673584, 0.41540661454200745, -0.1920429766178131, -0.16716913878917694, 4.414653301239014, -0.45639675855636597, 0.15770816802978516, 0.10229771584272385, 0.09022743999958038, -0.15315984189510345, 3.737816095352173, 0.3055897653102875, -0.7263591289520264, 0.9256358742713928, -1.4639415740966797, 2.5756609439849854, 0.9859780669212341, -1.6424487829208374, 0.4101283848285675, -1.2370182275772095, -0.7252781391143799, 0.030506370589137077
-1.7060303688049316, -0.5725252628326416, -0.2054055631160736, -0.01367049477994442, -1.1239296197891235, -0.6868155598640442, -0.726002037525177, -1.6220462322235107, -0.476046085357666, -0.708275318145752, -0.8061122298240662, -0.9928680658340454, -0.2990308701992035, -0.5362318158149719, -0.4837337136268616, -1.186922550201416, -0.7132880091667175, -0.17787879705429077, -1.7736202478408813, -0.010428889654576778, 0.057785555720329285, -1.2677992582321167, -0.1941697746515274, -1.122942328453064, -0.23681531846523285, -0.8469309210777283, -0.030318737030029297, -1.4051964282989502, -0.6399088501930237, -0.10411633551120758, -0.06867220252752304, -0.5416340231895447, -0.4837134778499603, -0.6189684271812439, -1.7191181182861328, -1.0186855792999268, -0.8018590807914734, 0.23768652975559235, 0.1249803751707077, 2.3422882556915283, 2.7088518142700195, 1.6436063051223755, 1.4172887802124023, 1.5287686586380005, -0.1724042296409607, -0.0904741883277893, -1.946556568145752, 0.692477822303772, 2.0784213542938232, 2.4040377140045166, 4.278688907623291, 2.184992551803589, 0.7421532273292542, -0.013235118240118027, 1.9367263317108154, 3.410977363586426, 3.5759525299072266, -0.021683676168322563, 0.8181055188179016, -0.032827023416757584, 0.2943219244480133, -0.159851536154747, -1.0839622020721436
-0.9750058054924011, -1.0343934297561646, 1.6865099668502808, 0.019226886332035065, -0.5223757028579712, -0.4413317143917084, 1.2201333045959473, -0.49675488471984863, -0.25239297747612, -0.5887610912322998, 1.3113179206848145, -1.0105451345443726, 1.4237972497940063, -1.613580346107483, -0.414562463760376, 1.205818772315979, -0.3862685263156891, 0.16243235766887665, -0.5028725862503052, -0.9198630452156067, 0.589206337928772, -0.44451335072517395, -1.5084718465805054, -1.5580589771270752, -1.4861701726913452, -0.20399929583072662, 1.5358549356460571, -0.2509613335132599, 2.5039637088775635, 0.7348170280456543, -0.5433099865913391, -0.1423826664686203, 0.06524313986301422, 1.345282793045044, 0.7077873945236206, -0.7838930487632751, 1.4848037958145142, 2.354729175567627, -0.3448368310928345, 1.5251725912094116, 0.1636599749326706, 0.5211378931999207, -0.551115095615387, 0.0323905423283577, 0.07528232783079147, -0.7139012217521667, 0.8923021554946899, 0.03702976554632187, 0.1377609819173813, 1.7068041563034058, 0.14558306336402893, -0.9189002513885498, 1.014328122138977, 0.14200514554977417, 1.5887737274169922, -0.5680287480354309, -0.5394509434700012, 0.11567923426628113, 0.4385705590248108, -1.3051435947418213, 1.9897786378860474, -0.03857854753732681, 0.8172410130500793
4.101919174194336, 0.8215109705924988, -0.8531445860862732, 0.903908371925354, -0.8932321071624756, -0.8417491912841797, -0.5997987389564514, -0.25740906596183777, -0.36241888999938965, -0.35692718625068665, 0.6607604622840881, 0.806675374507904, -0.8097273707389832, -0.060192324221134186, -0.7373082041740417, -0.15361477434635162, -1.585378885269165, -0.02165665663778782, -0.5745625495910645, -0.41563016176223755, -1.3690606355667114, 1.2409141063690186, 0.28480279445648193, -0.05400887876749039, -0.7537810206413269, 0.08314625918865204, 0.11373045295476913, 0.8037658333778381, -0.34616681933403015, 0.23304574191570282, 0.7224669456481934, 1.0453598499298096, 0.39495205879211426, -0.9512779712677002, -1.2711026668548584, -0.6893938183784485, -1.4073047637939453, -1.1425107717514038, 1.0494908094406128, -0.21138302981853485, -1.068426489830017, 3.861978054046631, 0.5088329315185547, 0.07129371166229248, -0.3592061698436737, 1.5709927082061768, -0.8124902844429016, -0.22719383239746094, -1.842570424079895, 0.6727977991104126, 2.228381872177124, -0.2890942096710205, 0.7841957211494446, -0.06152234598994255, -0.25852152705192566, 0.6916244626045227, 0.5493261218070984, -0.010838992893695831, 1.2664140462875366, 0.11242588609457016, -1.328714370727539, 0.4580652713775635, -1.1170588731765747
3.3025190830230713, -1.3165593147277832, 0.1938115954399109, -0.2704898715019226, 0.11756259948015213, -0.04241819307208061, 0.07043544203042984, 0.30057036876678467, -0.5522246360778809, -0.4147661626338959, -2.198369026184082, -0.4885234236717224, -1.0719234943389893, -0.1884000450372696, 0.3276180922985077, -0.7568461894989014, -0.30040740966796875, -0.41155514121055603, -0.17049407958984375, -0.25955259799957275, -0.05345335230231285, -1.996225357055664, -0.07943612337112427, -0.08368509262800217, -0.2778913676738739, -0.6512460112571716, -0.4109951853752136, -0.7362183928489685, -1.2940716743469238, -0.5683104395866394, -0.5575413107872009, -1.160649299621582, -0.5920843482017517, -0.9614310264587402, -0.68748939037323, -0.138706773519516, -0.2580737769603729, 2.734301805496216, 0.37424713373184204, -0.5762606859207153, 2.8977975845336914, 3.5707433223724365, 0.7335073947906494, -0.7342360019683838, -1.6863853931427002, 2.9745492935180664, 0.2972288131713867, 0.5833628177642822, 3.3391036987304688, -1.065191388130188, 0.42380064725875854, 2.816215753555298, -0.9910486340522766, -0.6533847451210022, 0.11545319855213165, 0.275469034910202, 0.7801489233970642, 0.5829086303710938, 0.018972542136907578, -0.6616455316543579, -0.5767737627029419, 2.7234082221984863, -0.36916229128837585
3.307785987854004, -1.1877305507659912, 0.5196636915206909, 0.08752717077732086, -0.7691028714179993, -0.22257496416568756, -1.0584064722061157, -1.013821005821228, 0.4696779251098633, 0.32482486963272095, -1.1984527111053467, -0.7429554462432861, -0.5309645533561707, 0.2188410609960556, -2.769371271133423, -0.4312707483768463, 0.06001592427492142, -1.8298794031143188, 0.19388124346733093, -0.4418327212333679, -1.117974877357483, -0.2250404804944992, 0.17512615025043488, -1.1807235479354858, 0.1368747353553772, -0.24579748511314392, 0.22240154445171356, -0.4374866783618927, -1.1745630502700806, -0.21464474499225616, -0.778130054473877, -1.217437982559204, -0.7545772194862366, 0.03178635984659195, -1.683711290359497, -1.4747216701507568, 0.05016889423131943, 2.794975519180298, 0.6254960298538208, -0.9159786701202393, -2.0218148231506348, 3.8958609104156494, 0.643714189529419, -0.04105580598115921, -0.2159760743379593, 2.3706908226013184, -0.8288126587867737, -1.892654299736023, 0.38264092803001404, 1.1266642808914185, -0.8396850228309631, 2.004009485244751, 0.5108474493026733, 0.44227907061576843, -0.042100563645362854, 0.8971257209777832, -0.00510778883472085, 0.7552332282066345, -0.21076782047748566, 0.4173791706562042, -0.42082804441452026, 2.7403628826141357, -1.5394099950790405
4.439184665679932, -0.4068986475467682, -0.14437615871429443, -0.30634596943855286, 0.03258617967367172, -0.9254254698753357, -0.21660153567790985, -0.054946690797805786, -2.596376657485962, -0.7461256980895996, -0.3938930034637451, -1.567934513092041, -0.42618295550346375, -0.9109922051429749, -0.36587220430374146, -1.4076597690582275, 0.1153189092874527, 0.0042022778652608395, -0.7655547857284546, -1.6228270530700684, -1.5021125078201294, -0.33000463247299194, -1.5000314712524414, -0.7156382203102112, -0.07466927170753479, -1.3138301372528076, -1.116071343421936, -0.48738300800323486, -0.10393184423446655, -0.814703643321991, -0.3373611867427826, -1.105022668838501, -0.8280673623085022, -0.405915230512619, -1.4146778583526611, 0.06244533136487007, -1.153263807296753, 0.8846027255058289, -0.09468292444944382, 2.001072645187378, 4.134740352630615, 3.138777256011963, 0.17761504650115967, 3.739406108856201, -0.47145429253578186, 1.6379503011703491, -0.6112419962882996, -0.02984566055238247, 0.3964901566505432, -1.066554307937622, 0.18289516866207123, 2.9375722408294678, -0.2568139433860779, -0.039537519216537476, -1.0827624797821045, 1.9001346826553345, 3.1765058040618896, 0.07508949935436249, 0.1224382296204567, -0.8100761771202087, -1.2184392213821411, 0.4387373924255371, -0.7984626293182373
3.438828945159912, -0.5157999992370605, -1.1845802068710327, -0.7575964331626892, -1.3545533418655396, -0.779734194278717, -0.402385413646698, -0.9183979034423828, -1.4487980604171753, -1.0237928628921509, -0.4758606553077698, -1.078182578086853, -1.7777941226959229, -0.682662308216095, -1.1727920770645142, -0.2924867272377014, -0.33943691849708557, -1.3854349851608276, -1.1238659620285034, -0.48778465390205383, -0.8979924321174622, -0.6720556020736694, -0.6537593007087708, -0.28576013445854187, -0.840768575668335, -1.188089370727539, -0.7174485325813293, -1.1619665622711182, -0.8707971572875977, -0.7579857707023621, -0.6231412291526794, -0.7757412195205688, -1.8781275749206543, -0.41192856431007385, -0.7418707013130188, -0.4835672080516815, -0.7123116850852966, 0.16685089468955994, -0.15770885348320007, 0.5846092700958252, 0.8302620649337769, 0.7072018384933472, 2.859349012374878, -0.9845437407493591, -0.34418201446533203, -0.5453231930732727, -0.23949657380580902, 1.5143643617630005, 1.3979848623275757, 2.378277540206909, 3.3544743061065674, 2.311387062072754, 0.8052141666412354, -0.6173809170722961, 2.9980969429016113, 1.3530319929122925, 2.247037649154663, 3.5284876823425293, 0.7097793221473694, 2.391258955001831, -1.695443868637085, -0.1625925898551941, -1.362682580947876
2.188563823699951, -0.46638190746307373, 0.715941309928894, -0.9198738932609558, -0.17913281917572021, -0.43816035985946655, 0.08753269910812378, 0.18695522844791412, 0.23046453297138214, -1.0436848402023315, -0.24265234172344208, -0.3117774426937103, -0.668494701385498, -0.29386916756629944, -0.6042697429656982, -1.1901493072509766, -0.17940156161785126, -0.023274585604667664, 0.3236863315105438, -0.715564489364624, -1.0944435596466064, -1.4178481101989746, -2.0498082637786865, -0.46652352809906006, -0.24815519154071808, -0.11970441043376923, 0.2966276705265045, 0.6586732864379883, 0.010010316967964172, 0.12744060158729553, -0.3506507873535156, 0.25293347239494324, -0.4113219678401947, -0.1813121736049652, -1.1931616067886353, -0.34863242506980896, -0.6880236864089966, 1.4192469120025635, 0.49932557344436646, -0.5701894164085388, 0.14849357306957245, 2.8623366355895996, -1.5735111236572266, 0.3588108420372009, 0.16706176102161407, 1.6080886125564575, 0.1472160518169403, 0.4582538604736328, 1.1695647239685059, -0.16889053583145142, -0.01683823950588703, 2.1154167652130127, 1.3933207988739014, -0.1409706175327301, 1.7485523223876953, 0.9719818234443665, 0.9718649983406067, 1.0911104679107666, -0.18607084453105927, -0.21337418258190155, -1.3043205738067627, -0.593941330909729, -0.7293356657028198
-2.3945229053497314, 0.9121153950691223, -0.06708741188049316, -1.631780982017517, 0.6816890835762024, 0.371777206659317, -1.6497819423675537, -0.21005895733833313, 1.7012033462524414, 0.7987103462219238, 0.7558198571205139, -1.201106309890747, 1.5433731079101562, 0.560961902141571, 0.335482656955719, -0.9110478758811951, 0.7411803603172302, 1.5958383083343506, 0.6086549162864685, 0.8715320825576782, 1.5023880004882812, -1.3117579221725464, 1.1772780418395996, -1.3801506757736206, -0.7627906203269958, -0.20452794432640076, -1.4015918970108032, 0.44390639662742615, 0.7345446944236755, 1.3024427890777588, -0.034742679446935654, 0.25539150834083557, 0.1485830843448639, 0.7392190098762512, 0.39575091004371643, 0.14467166364192963, -0.3492622375488281, -0.5277774333953857, -1.898034691810608, -0.7975218892097473, 0.821019172668457, -1.2390525341033936, 0.18800313770771027, -1.0395855903625488, -0.31961414217948914, -2.563432216644287, 0.17249540984630585, -0.25687891244888306, -1.247219204902649, 2.2292141914367676, -0.0033925240859389305, 0.6055935025215149, 0.5355288982391357, -0.9159529805183411, -0.6224537491798401, -0.5762239694595337, 0.05071243643760681, 2.2402265071868896, 0.3908056616783142, -0.20762571692466736, -0.3212697505950928, -0.12921017408370972, -0.1250900775194168
4.251470565795898, -0.009266918525099754, -0.6263409852981567, -2.802380323410034, 0.09798601269721985, -0.5116214752197266, -1.1030054092407227, -0.706093430519104, -1.1544513702392578, -0.1965077817440033, -1.3516018390655518, 0.0084507055580616, -1.9319082498550415, -0.11209871619939804, -0.989592969417572, -0.7137939929962158, -0.1448652297258377, 0.08850574493408203, -0.608009397983551, -0.22407451272010803, -0.7687573432922363, 0.24919894337654114, -0.5955043435096741, -0.7789663672447205, 0.13154931366443634, 0.10322248935699463, -0.6719056963920593, -0.7085164189338684, 0.2054813951253891, -0.48040351271629333, -0.9613898992538452, -0.24316731095314026, -2.379701852798462, -0.9696851968765259, -0.8785253167152405, -0.5431410074234009, -0.27696749567985535, 2.4082844257354736, 0.248714417219162, 0.6442687511444092, 1.8378428220748901, 4.079896450042725, 0.41073644161224365, -0.17515826225280762, 0.28877124190330505, 2.667844533920288, -0.5610563158988953, 0.03651895374059677, 0.21773503720760345, 0.90101158618927, 1.369660496711731, 2.967942714691162, -0.4311445653438568, -0.5186758637428284, 0.527066171169281, 2.532545328140259, 2.3407504558563232, 1.1657462120056152, -0.23098713159561157, -0.7932714819908142, -0.2208777517080307, 1.7397946119308472, -1.5119068622589111
4.836716175079346, -1.6118338108062744, 0.2932451367378235, -0.48979315161705017, -1.7506247758865356, 0.09221091121435165, -0.26060450077056885, -0.21899566054344177, 0.1373736709356308, 0.22697918117046356, -0.009708166122436523, -0.3150334358215332, -0.8568746447563171, -0.6138899922370911, -0.3762597441673279, 0.00045001390390098095, -0.16778966784477234, -1.0800515413284302, 0.25019991397857666, -1.3644076585769653, -0.7468960881233215, 0.1797635406255722, 0.15294679999351501, -1.1994279623031616, -1.5142446756362915, 0.2942553162574768, -2.640065908432007, -0.057965148240327835, 0.07214878499507904, -0.7093551158905029, -0.3838162422180176, 0.08661028742790222, -2.3004543781280518, -1.0890980958938599, -1.0936038494110107, 0.29644930362701416, -0.35213908553123474, 2.854325532913208, -0.05939121171832085, 1.028488278388977, -1.2818247079849243, 3.5383412837982178, -0.6348575353622437, -1.770510196685791, 2.9653875827789307, 2.5151705741882324, 0.16760705411434174, -0.03650328144431114, 0.10255914181470871, 0.9379255175590515, -0.36489084362983704, 2.615285873413086, 0.5200765132904053, -1.1199830770492554, -0.21630249917507172, 2.4387431144714355, 3.635969638824463, 1.7169536352157593, -0.6203227043151855, -0.5294502973556519, 0.3558158576488495, -0.00790134072303772, -0.12903936207294464
5.1089911460876465, -0.22247980535030365, -0.044882919639348984, -0.9683161973953247, -1.7056922912597656, -1.4172276258468628, 0.09785864502191544, 0.08218060433864594, -0.27733519673347473, -0.4668255150318146, -0.3593496084213257, -1.5216715335845947, -2.4913299083709717, 0.3892410397529602, -0.4268397390842438, 0.0027474111411720514, -0.3539775609970093, -0.14856493473052979, 0.09116644412279129, -0.616823136806488, 0.24400173127651215, 0.052427634596824646, 0.12698368728160858, -0.8633974194526672, 0.12815572321414948, -0.025068292394280434, 0.12237346172332764, -0.16829797625541687, -1.0289978981018066, -1.1122279167175293, -0.8273796439170837, -1.6969411373138428, 0.1767081618309021, 0.1671627312898636, -0.7846425771713257, 0.13315865397453308, -0.9727348685264587, 2.596127510070801, -0.08261340856552124, 0.9009649157524109, 0.21111144125461578, 3.7802200317382812, -1.217795968055725, 0.26470276713371277, 5.008392810821533, 3.363516092300415, -0.0815051794052124, -1.4574521780014038, 1.3242573738098145, -0.4492753744125366, -0.520052969455719, 4.021090030670166, -0.28791388869285583, -0.35411566495895386, 2.0252764225006104, 1.3559409379959106, 1.6467434167861938, 1.2331935167312622, 0.4200534522533417, 0.7411013245582581, -0.08363143354654312, 1.1113531589508057, 0.02583407610654831
2.705327272415161, -0.21511873602867126, -0.5526643991470337, -0.9500166773796082, -0.2652219235897064, -0.6102584600448608, -0.239689439535141, -1.2186665534973145, -0.5820371508598328, -0.5959749817848206, -0.12407130002975464, -0.41752976179122925, -0.8560371994972229, 0.13580778241157532, -1.026477575302124, -0.16571390628814697, -0.20812830328941345, 0.4658166468143463, 0.18675528466701508, 0.2798817455768585, 0.06656569987535477, 0.4352978765964508, 0.13490067422389984, -0.7525956630706787, -0.9410452246665955, 0.17476262152194977, 0.12400277704000473, 0.03665681555867195, 0.3841106593608856, -0.2325812727212906, -0.5561789870262146, 0.35835906863212585, -1.5789285898208618, 0.2823721766471863, -0.5025421977043152, -0.6481043100357056, -0.3559590280056, 0.4774508774280548, 0.5823252201080322, 0.9151287078857422, -0.34405070543289185, 0.3109056055545807, -0.45560672879219055, 1.7860647439956665, -0.39081329107284546, 1.3328289985656738, 0.47304582595825195, -0.27323731780052185, 2.6239001750946045, 0.9609800577163696, 2.7015233039855957, 0.33195146918296814, 1.935474157333374, 0.3642289638519287, 2.9928476810455322, 2.672196388244629, 3.1894912719726562, -0.32678210735321045, -1.836409330368042, -0.23352780938148499, -0.4585939347743988, -0.7300383448600769, -1.121192216873169
0.9518490433692932, -0.3896227777004242, 0.1779157668352127, -1.0254021883010864, 0.7911819815635681, -0.219246968626976, -0.5104265213012695, 1.4227036237716675, 0.5587339401245117, 0.5088682770729065, 0.1313987374305725, -0.30287620425224304, 0.5672865509986877, -0.4154549539089203, -0.22627706825733185, -0.925308883190155, 0.07366757839918137, -0.182531476020813, -1.9117100238800049, -1.3578104972839355, -0.04138190299272537, 0.5427346229553223, -1.39504873752594, -0.45458218455314636, 0.5428194999694824, -1.1063809394836426, 0.7394744157791138, 0.1239720955491066, 1.354402780532837, -0.7154282927513123, 0.04873412102460861, 0.9251646995544434, 0.504490315914154, 0.8284898996353149, -1.6815769672393799, -1.1535793542861938, 0.0911162942647934, 1.834383487701416, -1.2373685836791992, 1.503476858139038, 0.2841736674308777, 5.406229496002197, 0.49817728996276855, 1.341091513633728, -0.7839321494102478, 2.9208686351776123, -1.0874042510986328, -0.555238664150238, -0.8645747303962708, 0.4334144592285156, 0.5797590017318726, 0.604249119758606, 0.8813740015029907, -0.7534558176994324, 1.0589121580123901, -0.219268798828125, 0.1668865978717804, 0.279724657535553, -0.044924672693014145, -1.1087831258773804, 0.29572340846061707, 0.6077882051467896, -0.8129615187644958
3.2286314964294434, 0.3704524338245392, 0.5182949900627136, -0.2548828721046448, 0.4046269655227661, -0.021818481385707855, -0.7301987409591675, 0.2649066150188446, -0.526481568813324, -0.48955342173576355, 0.06552857160568237, -0.9984714984893799, 0.37704718112945557, -0.8781560659408569, 0.12922944128513336, -0.08784057945013046, -2.0257084369659424, -0.36444392800331116, -0.9430599808692932, 0.4256207346916199, -0.9006243348121643, 0.07521416991949081, -0.2484460026025772, -2.191732406616211, 0.4002671539783478, 0.06104143336415291, -0.8355090022087097, -0.039326153695583344, -0.43536683917045593, -0.5394540429115295, -0.22201493382453918, 0.4368109405040741, 0.4210635721683502, -0.5345262885093689, -0.2716613709926605, 0.4951218068599701, -0.5034307241439819, 4.0529913902282715, -0.6388871669769287, -1.3012642860412598, 0.4301723837852478, 3.4632956981658936, 0.4470328688621521, 0.42987653613090515, 3.5460658073425293, 3.5652565956115723, -2.218146800994873, 0.6754640340805054, 0.2805978059768677, -0.9829003810882568, 2.060250997543335, 2.8370730876922607, -0.64544677734375, -0.014262323267757893, -0.22167769074440002, -0.5510584115982056, 0.03276962786912918, -1.2796504497528076, 0.266148179769516, -1.679081916809082, 0.579927384853363, -0.4024657905101776, 0.734708309173584
0.14536112546920776, 0.21730950474739075, 1.853014588356018, 1.0369198322296143, 0.2834453582763672, 0.6549967527389526, -0.4974508285522461, -0.7725234031677246, -0.31941738724708557, -0.4944557845592499, -1.582822322845459, -0.6232415437698364, 0.5066673755645752, 0.150808647274971, 0.6736327409744263, 0.03758660703897476, 0.8027014136314392, -0.3364851474761963, 0.615261435508728, -0.7109061479568481, 0.7236405611038208, -0.6196163296699524, 0.7357381582260132, -2.1605889797210693, -0.5897501111030579, 0.13719670474529266, -0.9899113774299622, 0.9568417072296143, 0.72027188539505, 0.15922129154205322, -0.6833996772766113, -0.03459890931844711, 0.0819888785481453, 0.13107271492481232, -1.5685020685195923, -0.1178319975733757, -0.6138921976089478, 0.21629993617534637, -0.5968352556228638, -0.10128660500049591, -1.63013756275177, 1.589219093322754, -0.08862051367759705, -0.2795032262802124, 0.4421690106391907, -0.18742984533309937, -2.1126391887664795, 0.43214014172554016, -1.2153065204620361, -1.7287943363189697, -0.49274733662605286, -0.6376980543136597, -0.6643145084381104, -0.5428786873817444, 1.004858374595642, -0.08587344735860825, 1.448990821838379, 0.4382874667644501, -1.1320571899414062, 1.127601981163025, -1.2214497327804565, -1.0938940048217773, 0.816002607345581
5.901351451873779, 0.6522418260574341, 1.0726813077926636, -1.0704643726348877, 0.6042322516441345, 1.0043540000915527, -0.6612671613693237, 0.4099303185939789, -2.2945139408111572, 1.0692486763000488, 0.17498242855072021, -0.7570874094963074, -0.9924769997596741, -0.09494615346193314, -1.2371567487716675, 1.124024510383606, 0.8892073035240173, 0.1920611709356308, -0.1667902171611786, -1.2287585735321045, -0.6551383137702942, 0.23969797790050507, 0.12322722375392914, 0.4518802762031555, 0.0627424567937851, 1.2968732118606567, 0.07053589075803757, -0.43192532658576965, 0.7267217636108398, -3.183634042739868, 0.40343478322029114, -1.6757774353027344, 0.3639146685600281, 0.899620532989502, 0.9030471444129944, -0.678617000579834, -0.8837366104125977, -0.11803662776947021, -0.6595990657806396, 0.3281403183937073, 0.64942467212677, 0.7949191927909851, -0.6871628165245056, 0.3138684332370758, 0.11286543309688568, -0.17934967577457428, 0.960304856300354, -0.48197850584983826, 1.484975814819336, 1.1348057985305786, 0.7525885701179504, 4.353596210479736, -0.6162578463554382, -0.1883896440267563, 1.4268145561218262, 2.0285232067108154, -0.30163002014160156, 0.6343715190887451, 0.23904408514499664, 0.5206508040428162, -0.28457409143447876, 0.5675392746925354, -1.7801690101623535
1.1695795059204102, 0.5522292256355286, -0.10898398607969284, 0.4404985010623932, 0.1539909839630127, -1.6162348985671997, 0.8665331602096558, 0.17049899697303772, -2.0523016452789307, 0.9277316927909851, 1.0065126419067383, -1.2554302215576172, 0.17430636286735535, 0.11905618011951447, -1.957311987876892, -0.6838449835777283, 1.267026662826538, -1.1725951433181763, 2.0879697799682617, 0.3488858640193939, -1.7844314575195312, 1.4017226696014404, 0.6160957217216492, -1.0676584243774414, -0.8573102951049805, 0.5988892912864685, -0.013158011250197887, 1.7849899530410767, -1.2570784091949463, -1.0361988544464111, -0.943476140499115, 0.627747118473053, 1.571815848350525, 0.17297641932964325, 1.6239135265350342, -0.11785494536161423, 0.7517009973526001, -0.5600799322128296, 0.14129462838172913, 1.202091932296753, 1.4958583116531372, 1.7710022926330566, -0.37594032287597656, -0.1634746789932251, 0.11858353763818741, -1.6262952089309692, 0.9305804371833801, 1.5203993320465088, 0.5505942106246948, -0.15793918073177338, 0.3036007285118103, 1.2611258029937744, 0.15368299186229706, -0.09682832658290863, -0.8009756207466125, 0.31625014543533325, 1.7044810056686401, -1.1208183765411377, 0.9815074801445007, 1.0619316101074219, -1.4264488220214844, -1.3657629489898682, -0.39686569571495056
