-0.8600115776062012, -1.6535056829452515, -0.8837953209877014, -0.7874215841293335, -0.873058557510376, -1.4276797771453857, -1.2309974431991577, -1.1164731979370117, -0.9682778120040894, -1.1471604108810425, -1.2410681247711182, -0.06682374328374863, -0.1205311119556427, -1.4303323030471802, -0.682028591632843, -0.5152180194854736, -0.4389382302761078, -1.8037829399108887, 0.1409091353416443, 1.7423791885375977, -0.18164855241775513, -1.1761037111282349, -1.070467233657837, 0.27849081158638, -0.5703178644180298, -0.3048859238624573, -0.43099313974380493, -1.754051685333252, -0.8720498085021973, -0.5547835230827332, 0.01655627228319645, -1.0812569856643677, -1.7417060136795044, 0.05639602616429329, -1.487703800201416, -0.38780468702316284, -0.7465755343437195, 2.8165016174316406, 1.7915363311767578, 1.4976903200149536, 1.293920636177063, 0.687053382396698, 1.4428915977478027, 0.8082878589630127, 2.3651344776153564, 1.9176969528198242, -0.582947313785553, 0.06965836882591248, 1.201074242591858, 1.9460735321044922, 1.005867838859558, 2.1268250942230225, 1.1036067008972168, -0.8543834686279297, 0.9278499484062195, 2.3641414642333984, 2.9976108074188232, 0.19881169497966766, -0.2232946753501892, 2.3496432304382324, -1.836763858795166, 0.6524430513381958, -0.8783937096595764
0.9238196611404419, 0.0071129752323031425, -0.7783942222595215, -1.240790843963623, 2.3225455284118652, -0.4876653850078583, -0.05910826101899147, 1.056052327156067, 0.4330211877822876, 1.14548921585083, -1.1676117181777954, 1.9068375825881958, 0.053907133638858795, 0.4832199513912201, 0.48123326897621155, -0.8609448671340942, 0.4207603633403778, -1.4697786569595337, 2.633430242538452, -0.05327264592051506, 0.6497485041618347, -0.14877666532993317, 1.5444625616073608, 2.3560523986816406, 1.7216987609863281, -0.20497429370880127, -0.48234039545059204, -0.7488554120063782, 1.759244441986084, 1.2728527784347534, -0.4900260865688324, -0.2742302119731903, -0.8876831531524658, -0.4827900826931, -0.46832528710365295, -0.5728599429130554, -0.7916669845581055, 0.763978123664856, 0.10960306227207184, -0.17524991929531097, 0.7586879134178162, -0.35256919264793396, -1.0637894868850708, 1.0448853969573975, -0.414228230714798, 0.11695662885904312, -0.8336829543113708, -0.4740479588508606, -1.2411677837371826, 0.6423928737640381, -0.7854290008544922, 1.1309177875518799, -0.9930498003959656, -0.1291927844285965, 0.4288613796234131, -0.22659942507743835, -0.11178022623062134, -2.2699737548828125, 0.5188581347465515, -2.261691093444824, -2.404675006866455, -0.6209200024604797, -1.3579248189926147
-0.047082893550395966, -0.034880295395851135, -0.4066360294818878, 0.40158751606941223, 0.4801153838634491, -1.2095283269882202, 0.7260265946388245, -0.4582054018974304, -0.08571574091911316, -0.0998694971203804, -0.31151771545410156, 0.7723159790039062, 0.18773193657398224, 0.7827141284942627, 1.1698181629180908, 1.3029862642288208, -0.05940743535757065, 0.1223992332816124, 0.6175666451454163, -0.6493474841117859, -0.6023218035697937, 0.9085709452629089, 0.263505756855011, 0.9293855428695679, 0.7940894961357117, -0.7110279202461243, 0.47477611899375916, 2.2468321323394775, -1.1652151346206665, 1.7561078071594238, -0.052244726568460464, -0.21556785702705383, 0.9359991550445557, -1.7699519395828247, -0.6490377187728882, 1.4668433666229248, 0.9536369442939758, -0.1273999810218811, 0.36699947714805603, 0.015547242946922779, -1.4368826150894165, -0.7286401391029358, 0.9736945033073425, -0.2576099932193756, -0.008096381090581417, -0.2061338573694229, -0.16520802676677704, 0.03208650276064873, -0.9407352805137634, 0.5242951512336731, 1.4413756132125854, -1.5106204748153687, 1.1089105606079102, -0.6892314553260803, -0.1687503308057785, 0.9644826650619507, -1.6027650833129883, -0.08960559219121933, 0.06445403397083282, -0.40938201546669006, 0.6844707727432251, -1.1192196607589722, 0.3099970817565918
1.861152172088623, 0.39404815435409546, 1.8039438724517822, 0.48780909180641174, -0.7575223445892334, 0.42994770407676697, -2.167480945587158, -0.5846743583679199, 2.630681276321411, -2.3373937606811523, 0.6168406009674072, 2.1231255531311035, 0.07730816304683685, -1.4106760025024414, 2.1580495834350586, 1.3456506729125977, 0.9361793994903564, -1.573747992515564, -0.3301435112953186, -0.9157871603965759, -0.005703179631382227, 0.850282609462738, -2.465623378753662, 0.15806442499160767, 0.6027028560638428, 1.4577040672302246, 0.18689030408859253, -0.5193192362785339, -0.9249770641326904, 1.4971895217895508, -0.31083109974861145, -0.2819931209087372, -0.9090575575828552, -1.0166157484054565, 1.1766269207000732, 0.5306980609893799, 0.2902354598045349, 1.373205304145813, -0.8628526926040649, -0.07701696455478668, 0.7881374359130859, -0.7169051766395569, 1.2859913110733032, -1.301761507987976, 1.347926139831543, -2.1045525074005127, -0.21456515789031982, -1.6155548095703125, -0.6589330434799194, -0.3019784688949585, -1.4007527828216553, 1.6630409955978394, -1.7324501276016235, -0.014213996939361095, 0.66344153881073, -0.7193236351013184, 0.7258312702178955, 0.7164137959480286, 0.3659149706363678, 0.3834509551525116, -0.6888423562049866, -1.0238357782363892, 0.13189911842346191
-0.9434182047843933, 1.3759033679962158, -0.5295230746269226, 0.21245454251766205, 0.39153215289115906, 1.1167563199996948, -0.5564034581184387, 1.324257493019104, 3.5231494903564453, -1.4629830121994019, 1.6273764371871948, -0.622741162776947, 0.06944580376148224, 1.2355389595031738, 0.3170570135116577, -0.18212616443634033, -0.7530831098556519, -0.3754902780056, 0.03315337374806404, -0.4880979359149933, -0.8296838998794556, 0.37120482325553894, -1.3436356782913208, 0.4111059606075287, -1.0885648727416992, -0.0805729478597641, 0.6039940118789673, -0.08863752335309982, 0.24310512840747833, -1.1270296573638916, -0.3264025151729584, -2.633892774581909, 0.8452110290527344, -0.5206359624862671, -0.0033991956152021885, -0.2500401437282562, 0.1970968246459961, 0.14758768677711487, 0.44158780574798584, -0.5946298241615295, -1.3524166345596313, -1.6535792350769043, -0.27368199825286865, -0.07537255436182022, 0.7700027227401733, 0.6090208888053894, -0.26782700419425964, 1.3168495893478394, 0.24163539707660675, 1.041982889175415, 0.5507792234420776, 0.3515098989009857, -0.5263157486915588, 0.551254391670227, 1.4567492008209229, 0.7766748070716858, 0.8883878588676453, -1.6731359958648682, -1.2059996128082275, 0.9769469499588013, 1.0752915143966675, 0.6003376841545105, 0.6599900126457214
-0.9903585910797119, 0.05800073221325874, 0.17809323966503143, 1.8592336177825928, -0.8553573489189148, 1.8617154359817505, 0.03480765223503113, -1.1546381711959839, -0.7395551204681396, -0.3030690550804138, -0.5346139669418335, 0.25231558084487915, -0.9454190135002136, 0.04151184856891632, 0.6562126278877258, -0.9533164501190186, 0.6903290748596191, 0.39352115988731384, -0.25105321407318115, 0.5512973070144653, -0.2718934416770935, -0.08405542373657227, 0.5731076002120972, 1.1862586736679077, -1.3232847452163696, -0.9944418668746948, 2.2338707447052, 0.6881333589553833, -1.2350133657455444, 0.7139283418655396, 0.809253454208374, 0.5386326909065247, 0.29023218154907227, -2.2954657077789307, -0.8778296113014221, 1.4840062856674194, -1.1746501922607422, 0.38327842950820923, -0.040334876626729965, -0.7829492688179016, -2.842319965362549, -0.09474411606788635, -0.5925121307373047, 1.023425579071045, 0.8412442803382874, 0.05657263100147247, 0.6921893954277039, -1.8353893756866455, 1.2884441614151, -0.9558525681495667, 2.0852138996124268, 2.862598419189453, 0.5054188370704651, 0.627630889415741, -0.0011628934880718589, 1.3280779123306274, 0.2270113080739975, 0.3267216384410858, -1.9152945280075073, -0.002120350254699588, -0.6319530606269836, -0.6452615857124329, 1.2034204006195068
-1.0594024658203125, -0.858505129814148, 1.06211519241333, 0.2937462031841278, 1.8802133798599243, 0.4569365978240967, -1.181968331336975, 1.5057475566864014, 0.5962826013565063, -0.9889406561851501, -0.012944327667355537, 1.1988853216171265, 1.6306326389312744, 0.3773450255393982, 1.4727952480316162, -0.61711585521698, 0.9426474571228027, 0.4824603199958801, -0.6402971744537354, -1.3704923391342163, 0.9824478626251221, 0.13856850564479828, -1.8079099655151367, 0.37980616092681885, -1.104007601737976, -0.6148347854614258, -0.31815293431282043, 0.8729478120803833, 1.2068904638290405, 0.13269074261188507, 0.737767219543457, 0.5738511085510254, 1.2184984683990479, 0.3711753189563751, -0.4901427626609802, -1.1951984167099, 1.0010545253753662, -0.641393780708313, 1.4247976541519165, 0.9483211636543274, -0.17428264021873474, 0.16570942103862762, -0.6907016038894653, 0.8662471771240234, -0.8971351981163025, 0.8860738277435303, 0.35388892889022827, 0.38648396730422974, -0.9474772214889526, -1.1205660104751587, 0.20380733907222748, -0.33450254797935486, 0.11027485877275467, -0.16413894295692444, 0.7371088266372681, 1.1235991716384888, 2.6182966232299805, 1.1001797914505005, 0.1404547542333603, -0.48427441716194153, -0.17735116183757782, -0.5308630466461182, 0.32677263021469116
0.03360291197896004, 0.33122020959854126, -1.6942484378814697, -0.8475618958473206, -0.37309062480926514, 0.12095826864242554, 0.08037348091602325, 0.11703827232122421, 0.2162264585494995, -0.1044558435678482, -0.7350409626960754, -0.428398072719574, 1.252082347869873, 0.18679414689540863, 2.1045279502868652, -2.0395078659057617, -0.6892476081848145, -1.3060380220413208, 0.2187858670949936, -0.48667293787002563, -0.3583443760871887, -1.1596705913543701, -0.09692276269197464, -0.9178822636604309, 0.002966235624626279, 0.055255405604839325, -1.1667149066925049, -1.0069059133529663, -0.880343496799469, 0.7002127766609192, -1.1929126977920532, -0.6465378403663635, -0.3652195334434509, 0.572512686252594, 1.2856425046920776, 0.32336482405662537, -3.434373378753662, 0.24422568082809448, 0.1107458546757698, 1.4079461097717285, 0.1486527919769287, -1.7027126550674438, 1.1671397686004639, 0.5863253474235535, -0.5130925178527832, 0.8693795800209045, 0.9204418063163757, 0.20774111151695251, 2.028588056564331, -2.0874924659729004, -0.25317707657814026, 0.7300097942352295, 0.07322657108306885, -1.3713210821151733, -0.5263018608093262, -0.4083637595176697, -0.11966864764690399, -0.9801211953163147, 0.37877827882766724, -1.2734572887420654, 1.7750147581100464, -1.4471805095672607, -0.28830060362815857
-1.9431270360946655, 0.5747756958007812, -2.068528652191162, 2.480253219604492, 1.1360821723937988, 0.2694868743419647, 0.468941867351532, -1.5564712285995483, 2.345090389251709, -0.326578289270401, 0.7420573234558105, -0.03742721304297447, 1.6714332103729248, -0.20462341606616974, 0.8433607220649719, -2.286245107650757, -1.5389596223831177, 0.3482091724872589, 0.24389739334583282, -0.27045902609825134, 0.5081310868263245, 0.5021194815635681, 1.0357279777526855, 0.06410215049982071, -0.35944291949272156, 0.37785646319389343, 1.1335676908493042, -0.5790744423866272, -0.6729406714439392, -0.06498841941356659, 1.9562606811523438, -0.31054624915122986, -0.3850021958351135, 0.6294198036193848, -0.2904679477214813, -0.869670569896698, -1.2068699598312378, 0.5353291630744934, -1.4061710834503174, -1.2056266069412231, 0.553296685218811, -1.250327229499817, 1.692831039428711, -0.24852289259433746, 0.3349542021751404, -0.5989909768104553, -0.34081530570983887, 1.6192495822906494, 1.5473530292510986, -1.4573272466659546, 0.13656209409236908, 0.5180768370628357, 1.374487280845642, -0.5875140428543091, 1.151481032371521, -0.8319998383522034, -0.47742417454719543, 0.3149465322494507, -1.2009594440460205, -0.3224851191043854, 0.17544502019882202, -0.24215348064899445, -0.14931634068489075
0.7115376591682434, -0.3586263954639435, -0.3425475060939789, 2.5496156215667725, 0.5691579580307007, 0.3930281698703766, 0.9945477843284607, -0.31851133704185486, -0.8755146265029907, -2.1534273624420166, 0.01805335283279419, -0.03701765462756157, 1.3200644254684448, 0.5378947854042053, -0.6541690826416016, 1.6978310346603394, 0.24802038073539734, 0.35260072350502014, 0.37827664613723755, -0.7312310934066772, -1.4839826822280884, 0.9189825654029846, 1.626874566078186, -0.5183869004249573, -0.9949294924736023, 0.206126406788826, 0.5123812556266785, -0.9417046308517456, 1.4219260215759277, -0.0585130900144577, 1.6762889623641968, 0.942305862903595, 0.044869642704725266, 0.9671452045440674, -0.49421218037605286, -1.0119980573654175, -0.5726759433746338, 1.6255296468734741, -1.1612156629562378, -0.3293696343898773, -0.44956737756729126, 0.7527758479118347, -0.6624443531036377, 1.878089427947998, -0.177243173122406, 0.2706020772457123, -0.13477295637130737, -1.2039296627044678, -1.1731144189834595, 0.5805195569992065, 0.503070056438446, -0.9931551814079285, 0.5963627099990845, -0.30834460258483887, -1.2357996702194214, -0.339303195476532, 0.2261437624692917, -0.5979490876197815, -0.22249560058116913, -0.9065214991569519, -0.27129414677619934, -0.459909588098526, -1.5159984827041626
-1.1359654664993286, 1.264306902885437, -1.3868436813354492, 0.12994900345802307, 1.9604345560073853, -0.7821667790412903, 1.6777836084365845, -0.895402193069458, -0.08033154159784317, 0.14669378101825714, 1.2671058177947998, 1.7689204216003418, -0.5961318612098694, -0.17541901767253876, -0.29310864210128784, -0.9814732670783997, 0.45180991291999817, 0.4757393002510071, -1.3567945957183838, -0.30403298139572144, 0.39007723331451416, 0.6520337462425232, 0.7917338013648987, -0.4644169807434082, -2.111785411834717, 0.081954225897789, 1.619470238685608, -1.4086018800735474, -1.0649588108062744, -0.6769568920135498, -0.42357879877090454, -0.3026532828807831, -0.0361781045794487, 2.226858377456665, -0.6181836724281311, -0.39477261900901794, 0.06845364719629288, 1.1919890642166138, -0.7628171443939209, 1.2323369979858398, 0.7102842330932617, -0.9717363119125366, -0.10374563932418823, 0.7321671843528748, 0.646741509437561, -0.5160887837409973, 0.22551672160625458, -1.1390342712402344, 1.5227396488189697, -1.8744274377822876, -1.725121021270752, 0.7836560010910034, -0.6824101805686951, -2.8831894397735596, 0.8994316458702087, -0.2531454265117645, 0.13747349381446838, -0.28931570053100586, 0.3880804181098938, 0.4807608425617218, 0.6454822421073914, -0.08799437433481216, -1.9465917348861694
0.9082730412483215, 1.7867302894592285, 0.8141461610794067, 0.529691219329834, 0.8959790468215942, -0.2970181107521057, 0.1188831701874733, 0.19913838803768158, 0.8313115835189819, -0.8712683916091919, -0.4674495756626129, -1.080172061920166, 0.884718656539917, 0.7253722548484802, -0.39802131056785583, 0.031204968690872192, 0.31575170159339905, -0.5158621072769165, 0.701984167098999, -0.015084343031048775, 0.1223309114575386, -0.7638692259788513, -1.2648489475250244, -0.8988451361656189, 2.077099561691284, 1.0150421857833862, -0.6531338095664978, 0.3697463870048523, -0.3425200283527374, -1.2169411182403564, 1.9761914014816284, -0.11188388615846634, 0.8779902458190918, 0.4976656138896942, 0.7551072835922241, 1.4666175842285156, -0.25792765617370605, 0.42484769225120544, -0.6507227420806885, -0.6352715492248535, 0.4791996479034424, -1.147269368171692, 1.2491549253463745, -1.602919101715088, 0.9348829388618469, 1.3800992965698242, -0.5181211829185486, 0.9227980971336365, 0.7312054634094238, -0.845105767250061, -0.4875090718269348, -0.9250105023384094, 0.45734962821006775, -0.15489564836025238, 0.6865262389183044, -0.39995256066322327, -0.7703509330749512, -1.2507872581481934, 0.34848111867904663, -0.4534450173377991, -0.8822981119155884, -0.2452331781387329, -0.016835561022162437
0.9353953003883362, -0.546630859375, 0.3093566596508026, -0.667759120464325, -2.2214417457580566, -0.5196596384048462, -0.009097862988710403, -0.03175650164484978, -2.479109287261963, -1.200089454650879, -1.0839143991470337, -0.24477513134479523, 0.706694483757019, 0.20383170247077942, 0.19076131284236908, -1.0453053712844849, 0.5332323908805847, 0.5248535871505737, 0.12457382678985596, 0.7206925749778748, -0.6773402094841003, 0.8152012228965759, 1.200435757637024, -0.03805793076753616, 0.5288168787956238, -1.4118480682373047, -0.654960036277771, -1.5923724174499512, 0.05510389432311058, 0.9835891127586365, 1.7224916219711304, 0.46803587675094604, 1.0759952068328857, -0.6754437685012817, -0.9375476241111755, 1.149836540222168, 0.9818971157073975, -1.2950764894485474, -0.005827100481837988, 0.09724581986665726, 1.0937477350234985, -0.9238908886909485, -0.8212900757789612, 0.344434529542923, 0.00513614434748888, 0.23957735300064087, 1.1946860551834106, 0.5071812868118286, -0.2784002721309662, -1.04812490940094, 0.28913965821266174, -0.48351261019706726, 0.15573127567768097, -1.0005767345428467, 0.462130606174469, -0.3460385799407959, 2.407665967941284, 1.732581615447998, 0.3867626190185547, 0.6653895378112793, -0.9365497827529907, -1.8608945608139038, -0.5947516560554504
-1.7268797159194946, 0.5417376160621643, -0.17308774590492249, -0.5341253280639648, -1.5991708040237427, 1.5401099920272827, -0.5913605690002441, -0.43414971232414246, -3.1171789169311523, -0.9290893077850342, 0.9778980612754822, 0.06365756690502167, 2.2700252532958984, -0.27928081154823303, -0.1277439296245575, 0.04961540177464485, 0.39414751529693604, 2.2126705646514893, -0.10275665670633316, 0.04841819033026695, 0.412811815738678, 0.9595358967781067, 0.16355817019939423, -0.7099034190177917, -0.7145297527313232, -0.24201852083206177, 0.07849501073360443, 0.333829790353775, 0.49597686529159546, -1.4009778499603271, 0.583832323551178, -0.07267335802316666, -0.4835388660430908, -2.257164239883423, 0.1016208678483963, -0.4840826094150543, -0.9699057936668396, -0.9067960381507874, 1.2802515029907227, 1.507469654083252, -1.5182812213897705, 1.0187753438949585, 0.8635201454162598, -1.12099027633667, 0.7449054718017578, -0.04617795720696449, -1.1886588335037231, 0.23293687403202057, -0.6693713665008545, -0.9554525017738342, -2.7375099658966064, -0.5513697862625122, 0.9379211664199829, 2.653225898742676, -0.5359919667243958, 0.2418500930070877, -0.35282042622566223, -0.23190243542194366, -0.38989853858947754, 0.7286056876182556, 1.2927652597427368, -0.6210598945617676, -1.9699063301086426
-0.5590250492095947, 0.9358746409416199, -1.7911533117294312, -0.7805413007736206, -0.6035897731781006, -1.2941820621490479, 1.619276523590088, -0.21043376624584198, -0.8569029569625854, -0.47440969944000244, 0.2987409830093384, 0.912316620349884, 0.12907320261001587, -1.1244163513183594, 0.885331392288208, 0.573589026927948, -0.20052680373191833, -0.472072571516037, 2.202615976333618, 0.12761355936527252, -0.7024728059768677, 0.5022323131561279, -1.0858691930770874, -1.1057506799697876, -0.3511151373386383, 2.4017515182495117, -0.43124905228614807, -0.10020407289266586, -0.5868838429450989, 1.0126484632492065, -2.1111109256744385, -1.063049554824829, 1.7955735921859741, 0.9101975560188293, 1.1559184789657593, -0.7231788039207458, -1.5019817352294922, -0.7617096304893494, -0.24663880467414856, -0.2936401665210724, -1.2275595664978027, -1.1852567195892334, 0.707089900970459, -0.32038265466690063, -0.8452767729759216, 0.10359266400337219, -1.1617480516433716, -0.3874880373477936, -0.8500328063964844, -0.2428438663482666, 1.4121201038360596, -0.8050687909126282, -1.576829433441162, 0.6240530014038086, 1.719965934753418, -0.9083179235458374, -1.2310794591903687, 0.8134074807167053, 0.14944955706596375, 1.401654839515686, 0.9193651080131531, 1.0171563625335693, 1.1226552724838257
1.423198938369751, -0.5988633036613464, -0.7757276892662048, -0.3501872420310974, 0.22015881538391113, 1.3559688329696655, 0.7784820199012756, -2.490323543548584, 1.347292184829712, -1.0109513998031616, 0.551963746547699, 0.7559368014335632, 0.890284538269043, 0.777331531047821, 0.7219281196594238, -0.39950305223464966, 0.08962667733430862, -0.18942369520664215, 1.7285162210464478, 0.4141881763935089, -0.5277692675590515, -0.08401039987802505, 0.5135349631309509, 0.6639706492424011, 0.8705459833145142, -0.20319706201553345, -0.5206401348114014, -0.5040863156318665, 1.0823570489883423, -0.20207075774669647, 0.008651794865727425, 1.5377134084701538, 1.0118554830551147, 0.2843966782093048, -1.289128303527832, 0.5358911156654358, -1.5179468393325806, 0.3421151041984558, 0.6845436692237854, 1.6152374744415283, -0.6320405006408691, -0.7665015459060669, 0.8502862453460693, 0.5779328346252441, 0.6666374802589417, -1.5962544679641724, -1.892377495765686, -0.3099508583545685, 0.6122110486030579, -0.32626163959503174, 1.144235372543335, 0.006603009533137083, 1.7164593935012817, 1.097478985786438, 0.24213860929012299, 0.7224633097648621, 1.408998966217041, -0.4060717523097992, -2.55879282951355, -1.5187928676605225, 0.5980267524719238, 1.0228707790374756, -0.06012079119682312
1.7795771360397339, 1.6809600591659546, -0.6469778418540955, 0.6933026313781738, -0.558742880821228, -0.1860351860523224, -0.9426116347312927, -0.4913293421268463, -0.04506124556064606, -0.3154749274253845, -0.14314071834087372, -2.5838427543640137, 2.1270875930786133, -0.38315171003341675, -0.3552386462688446, -1.3052936792373657, -0.6395177245140076, 0.2724667191505432, -0.2744588851928711, 0.3155306875705719, -1.4312224388122559, -1.315119743347168, -0.32621145248413086, -0.18499502539634705, 0.7624204158782959, -1.0882697105407715, 1.0190210342407227, 1.2407598495483398, 0.306878924369812, -0.92146235704422, 1.2719842195510864, 0.46361297369003296, 0.7493339776992798, -1.0856096744537354, -0.3796682059764862, -0.4933334290981293, 1.430420160293579, 2.8671841621398926, -0.12727190554141998, 1.3646036386489868, -1.2856755256652832, 0.6170876622200012, -2.0766961574554443, -0.038031429052352905, 0.20858721435070038, 0.1744353473186493, -0.5543830990791321, -0.18337386846542358, -0.1840037703514099, -1.1531805992126465, -1.1673481464385986, -0.6469423174858093, 1.0518065690994263, -0.004774975124746561, -0.3050195574760437, -1.1479804515838623, -1.7067605257034302, 0.29352620244026184, -1.2368942499160767, 1.5146608352661133, -0.6134397983551025, 0.8951992392539978, 0.34879156947135925
1.029476284980774, -0.5276105999946594, -0.40993809700012207, 1.2257649898529053, -0.340651273727417, -1.2016828060150146, 1.7057864665985107, 0.6882868409156799, -1.1023023128509521, 0.7437876462936401, 1.3115285634994507, -0.16922132670879364, 0.36206451058387756, 0.23312759399414062, 1.487945795059204, 0.41465458273887634, -0.3441173732280731, -1.5323621034622192, 1.4219619035720825, 0.2812544107437134, -0.6386934518814087, -0.5440961122512817, -1.0217458009719849, -2.2648580074310303, 0.3573071360588074, 0.8861501812934875, -0.5665953159332275, -0.8549167513847351, -0.18131886422634125, -0.34417933225631714, 0.6176016926765442, 0.6726840734481812, -0.6778955459594727, 0.07146754115819931, -1.8301844596862793, -0.9201951026916504, 0.6873481273651123, 0.2536913752555847, 0.00808405689895153, 0.41745004057884216, 1.1789228916168213, -0.8823704719543457, 0.27732157707214355, -0.937612771987915, 0.1540604829788208, 0.5694671869277954, -0.23207737505435944, 0.870076596736908, 1.5918816328048706, 0.7275422215461731, -1.4491193294525146, 1.5846699476242065, 1.6219279766082764, 0.3322881758213043, -2.336700439453125, -0.40175652503967285, -0.3950355648994446, -1.392107367515564, 0.5076442956924438, 0.34918203949928284, 0.0021910839714109898, -1.255507469177246, -1.393205165863037
0.7716520428657532, 1.3806228637695312, -1.9035497903823853, 0.44074079394340515, 0.07971788197755814, 1.1096869707107544, -0.6181566715240479, -0.9121838808059692, -0.1621343046426773, 1.1555930376052856, 0.2809721827507019, 1.0134440660476685, -0.1697741001844406, 0.8771452903747559, 0.7352921366691589, -0.26529428362846375, -0.10529407113790512, 0.018931804224848747, 0.6057966947555542, -0.20108023285865784, 0.7222287654876709, -1.109452724456787, 1.0489227771759033, -0.7030416131019592, -1.4319649934768677, -0.9819110035896301, -0.44883856177330017, -2.1005685329437256, -0.49738967418670654, -0.5783417820930481, -0.6587653160095215, 0.04059484973549843, -0.03623814880847931, 1.2114914655685425, -1.6002691984176636, 2.0298197269439697, -0.14609812200069427, 0.039469875395298004, 0.4610581398010254, 1.2188383340835571, 0.12094718962907791, 0.268571674823761, -0.5576552748680115, -1.0180673599243164, -0.8181657791137695, 0.5403776168823242, -1.2668637037277222, 1.1585630178451538, -1.432778000831604, 0.3607330620288849, -0.6417107582092285, 1.8812623023986816, 1.0502959489822388, -0.32085666060447693, -1.1119388341903687, -0.04802009463310242, -0.71733558177948, -0.1294095665216446, 0.27657264471054077, 0.32904574275016785, 0.17467252910137177, -0.754818856716156, -0.062150295823812485
4.850643157958984, -1.1923288106918335, -1.3014129400253296, -0.3889998495578766, -0.05480722710490227, 0.7568596005439758, 0.5632626414299011, -0.31057026982307434, -1.644694209098816, 1.6827001571655273, 0.5338298082351685, -0.9234395027160645, -1.4993914365768433, -1.7696962356567383, -0.3455548584461212, -0.2731821537017822, -1.6484158039093018, 0.9267899394035339, -0.5533607006072998, -1.0466420650482178, -1.2321163415908813, 0.6711099743843079, 0.022690603509545326, -0.3681194484233856, 0.22778476774692535, -0.6742265224456787, 1.0372154712677002, -1.0585756301879883, -0.5333191752433777, 0.060199420899152756, 0.5809974670410156, 0.5560583472251892, -0.0027037321124225855, 0.12876646220684052, 1.3744862079620361, -0.6689684987068176, 1.3775994777679443, -1.9875587224960327, 0.3719979226589203, 0.5395933985710144, -1.1113958358764648, 1.0128182172775269, -0.56252121925354, 0.892889678478241, -0.10517542064189911, 1.2764972448349, -1.037032961845398, 0.2061154991388321, -1.4068546295166016, 0.12581847608089447, 0.47949182987213135, 1.453538179397583, -1.0335513353347778, 0.6708226799964905, -0.3592832088470459, 0.523960530757904, -0.2295263409614563, -0.9543477892875671, 0.3839609622955322, 0.47802412509918213, 0.8384298086166382, -0.44722574949264526, -1.1808122396469116
-0.8923900723457336, 1.8059873580932617, 0.3387903571128845, 0.9505564570426941, -1.431792974472046, 0.328312486410141, 1.9085116386413574, -0.31284254789352417, -1.0452439785003662, -1.7306588888168335, -0.02534613572061062, 1.363612413406372, -1.1298725605010986, -0.8045868873596191, -1.1074799299240112, 1.8384462594985962, 0.3484765291213989, 0.8115038871765137, -0.279137521982193, -0.8740953207015991, 1.5392488241195679, 0.16194818913936615, 0.022660570219159126, 1.3607596158981323, -1.625379204750061, 1.102768898010254, -0.30738022923469543, 0.11082199960947037, 1.2227776050567627, 1.0613880157470703, 1.2713682651519775, 0.3355902433395386, -0.5806004405021667, -0.8490217328071594, 0.03885205090045929, 1.2307097911834717, 1.0827475786209106, -1.3561384677886963, -0.12821367383003235, -2.616549491882324, -0.3338637351989746, 1.5933947563171387, -0.9204983115196228, -0.41524913907051086, 0.08763670921325684, -0.9530366659164429, 0.6240037083625793, 0.5477902889251709, 0.2981845438480377, -1.3382339477539062, 0.5006645917892456, -0.468741774559021, -0.5406907200813293, 0.35952258110046387, -0.0349496565759182, 0.7567622065544128, -1.0145307779312134, -0.49918612837791443, -1.001800537109375, -0.36243003606796265, 1.5772823095321655, -0.9651678204536438, 2.1132423877716064
1.1247856616973877, 0.449040025472641, 0.04291742667555809, -1.0138572454452515, 0.5568366050720215, -0.2427120953798294, -0.9923228621482849, -0.8671176433563232, -0.3641044497489929, 1.1936986446380615, 0.26301252841949463, -0.8474482893943787, -1.1563448905944824, -0.027659637853503227, 0.10113029927015305, -0.7469968199729919, -0.2725066840648651, -1.6939421892166138, 2.6372337341308594, 1.1428993940353394, -0.7631133198738098, 1.8470938205718994, -0.8131772875785828, -0.22402870655059814, 0.030895771458745003, 0.2962460517883301, -0.7742154598236084, -0.17458727955818176, 0.08887441456317902, -0.07232356071472168, 1.0756820440292358, 1.346059799194336, 0.9783684611320496, -0.18361413478851318, -0.2553025484085083, -0.38240525126457214, -0.33240559697151184, -0.47006675601005554, 0.44945183396339417, -0.849582314491272, 2.132697820663452, 0.09067295491695404, 0.10758037120103836, 0.11732164025306702, 0.8819140791893005, 1.655576467514038, -2.2081339359283447, -1.5977076292037964, 1.2542569637298584, 0.8713271021842957, 0.22056671977043152, -1.2605295181274414, -0.13169804215431213, -0.021841565147042274, -2.184514045715332, -1.9393784999847412, -0.2311936318874359, -0.3750647306442261, -1.6202489137649536, -1.0950937271118164, 0.776517927646637, -1.659942626953125, -0.7041043639183044
-0.16595536470413208, -0.6520993113517761, -2.260955810546875, -1.987317681312561, -1.2151682376861572, 0.5104363560676575, -0.49829238653182983, 1.1685880422592163, -1.7784291505813599, 1.7193145751953125, 0.1704704612493515, -0.3735361695289612, 0.6154794692993164, -0.28963199257850647, -1.0918753147125244, 0.688393771648407, 1.207873821258545, 2.4702563285827637, -2.752734661102295, -0.9506820440292358, 0.5677093863487244, -0.42733487486839294, 1.3435711860656738, 1.4472310543060303, 0.02016351744532585, 1.2862335443496704, 0.3275856077671051, 2.011969804763794, 0.13865436613559723, -0.07229071110486984, -0.48267662525177, 0.2242533415555954, -0.4795907437801361, 2.0136704444885254, -1.0354187488555908, 1.4681179523468018, -1.531072735786438, -0.1932234913110733, 1.511618971824646, -0.7464956045150757, 0.11692406237125397, 0.11040656268596649, -0.3629704713821411, 0.18229594826698303, 0.18183934688568115, 0.7676112055778503, -0.06947176903486252, -0.6339971423149109, 1.6738299131393433, -0.22368842363357544, 0.9573026895523071, -1.6776924133300781, 2.8927042484283447, -0.5647536516189575, -0.6896510720252991, -0.1976855993270874, -0.8923220038414001, -1.1270729303359985, 0.12211543321609497, -1.0805107355117798, 0.17083872854709625, 1.0252588987350464, 1.3314646482467651
1.7246356010437012, 1.062812328338623, 0.9182459115982056, -1.5052127838134766, -0.39950358867645264, -1.6046242713928223, -1.6298877000808716, 0.9100101590156555, -0.6532297730445862, 0.16450847685337067, 1.2750166654586792, -0.2811344563961029, 0.2578860819339752, 0.6296949982643127, 0.7533407807350159, -0.09489627927541733, -0.4637625515460968, 0.42432135343551636, -0.4117785692214966, -1.3418560028076172, -1.4858912229537964, -0.7419091463088989, 0.36301279067993164, 0.20374783873558044, -0.006423937622457743, 0.08749011904001236, -2.6494483947753906, -0.2623017132282257, -0.36517027020454407, -0.5663991570472717, -1.5988370180130005, -1.0813572406768799, 1.5844980478286743, 0.6987316608428955, 1.4025481939315796, 0.06181496009230614, -1.6146403551101685, -0.42055028676986694, -0.032385483384132385, 0.263139933347702, 0.04666862264275551, -0.17680369317531586, -0.17763766646385193, -0.3924056589603424, 0.6888635754585266, 1.5331190824508667, -0.7551313638687134, -0.9701591730117798, -1.3722772598266602, -0.5189775824546814, -0.5000665187835693, -0.7233744263648987, 1.8809071779251099, -0.5418714880943298, -0.006496229209005833, 1.047371506690979, -1.814261794090271, 0.5381205081939697, -1.2515921592712402, 0.5058974623680115, -0.004258632659912109, -1.2159154415130615, 0.7742107510566711
0.27640408277511597, 0.8994154930114746, 0.11052011698484421, -0.004882000852376223, 0.19701281189918518, 1.5689572095870972, -0.19757170975208282, 0.1571742594242096, -0.7544834613800049, -0.30348554253578186, -2.3903145790100098, -0.3087581694126129, 0.06236664950847626, -0.057997558265924454, 0.3665012717247009, -1.3002601861953735, -1.2807881832122803, -0.9061710238456726, -0.14932313561439514, -0.10995419323444366, -0.41126805543899536, 1.1014916896820068, -1.9854795932769775, -1.719883918762207, 1.7660993337631226, 0.7213053107261658, 0.8501427173614502, 0.3243023455142975, 1.0415656566619873, 0.5147965550422668, -0.35252994298934937, 0.44024068117141724, 0.3168945610523224, -0.28090596199035645, 1.9721587896347046, 0.17670030891895294, 0.17397192120552063, -0.1423761546611786, -0.2792903482913971, 0.4067869186401367, -0.17042692005634308, 0.21819385886192322, 1.9716423749923706, 0.6288179755210876, 0.6349515914916992, 0.55251544713974, -0.13142623007297516, 2.2154324054718018, 0.1274433434009552, 0.26206621527671814, 0.05622359737753868, 2.3910179138183594, 1.1471951007843018, -0.0680098906159401, 0.4130338430404663, -0.3723156750202179, -2.1147217750549316, 0.8337888717651367, -1.1819381713867188, 0.0912143737077713, 0.17412377893924713, 1.658029317855835, -0.6698041558265686
0.8533404469490051, 0.4301077723503113, 0.13801585137844086, 0.19886116683483124, -0.1524769365787506, 0.8267357349395752, -0.26547056436538696, 0.3904697000980377, 1.969728708267212, -0.2273152470588684, -0.8089414238929749, -0.5093313455581665, -0.34155648946762085, 0.6033738851547241, 0.14947554469108582, -1.86348295211792, 1.015110731124878, 0.06417375057935715, -0.8416907787322998, 0.1457366794347763, 1.6689527034759521, 0.17478695511817932, 1.2647539377212524, 1.6447069644927979, 1.105501651763916, -0.6821250915527344, 0.6205201148986816, 0.26783865690231323, -0.3781144917011261, 0.16568826138973236, 0.8272947072982788, 1.1764949560165405, 0.1633153259754181, 0.3879413306713104, -1.7808293104171753, -1.0222022533416748, 0.8097942471504211, 0.5261444449424744, -0.5431041121482849, -0.5646880269050598, -1.5916869640350342, 0.2892214357852936, -0.117654949426651, 2.428135633468628, -1.7413960695266724, -0.8890009522438049, 0.24544385075569153, -0.03893667459487915, 0.7593078017234802, -0.9328961968421936, -0.9608575701713562, -0.4247080683708191, 1.1101815700531006, -0.9888842105865479, 0.07354000210762024, -0.1062912866473198, 0.2919329106807709, -0.817366898059845, -0.3955913484096527, 0.12168943881988525, 0.04133658483624458, 1.0645936727523804, 0.8835592269897461
-0.8633227944374084, 0.26194149255752563, -1.5046676397323608, -0.3427157402038574, 0.2949947118759155, -0.10195168107748032, 0.12392280995845795, 0.7991207838058472, -0.15840986371040344, 0.8033127188682556, -1.5160348415374756, -1.1067289113998413, -0.6465747952461243, -0.33291560411453247, -0.4839918315410614, 1.2674634456634521, 0.9349408745765686, -0.8368383049964905, -1.4794256687164307, -0.1785070300102234, -0.9588822722434998, -0.41694870591163635, 0.4622002840042114, -0.7470134496688843, 1.1234469413757324, 1.3448787927627563, 0.4399186670780182, -0.5921439528465271, -0.13390140235424042, -0.24358375370502472, -0.5878644585609436, 0.7441553473472595, -1.0839557647705078, -0.5293580889701843, 1.0050230026245117, 0.9791913628578186, -0.20019836723804474, 1.517611026763916, 0.1286722719669342, -0.17279386520385742, 1.6433498859405518, -0.9382339119911194, -0.8882652521133423, -1.3969157934188843, 1.0948827266693115, 1.1997638940811157, 0.1455339938402176, 0.28942444920539856, -0.7009227275848389, -0.6656136512756348, 1.088943362236023, 1.815368413925171, -1.129388689994812, 0.020359063521027565, 0.7184040546417236, 0.056518156081438065, -1.1486965417861938, -1.1032178401947021, -1.516796350479126, -0.17016366124153137, 0.5944725275039673, -0.4838779866695404, 1.0793230533599854
0.530513346195221, -1.076522707939148, -0.36789464950561523, -0.4448862373828888, 0.40037038922309875, 0.5150688886642456, -0.6460483074188232, -1.4606008529663086, -0.3854942321777344, -0.13995806872844696, -0.12093247473239899, -0.12470291554927826, 0.33882445096969604, 0.5794662833213806, -0.018398107960820198, 1.6279001235961914, -0.47466522455215454, -2.2616050243377686, 0.03028184548020363, -1.27226722240448, 3.1804208755493164, 0.5281490087509155, -0.3912521302700043, 1.1878019571304321, 0.5743474364280701, -0.36704444885253906, 2.0163631439208984, 1.9108341932296753, -2.0504679679870605, -0.852691650390625, 2.2747926712036133, -1.4940773248672485, 0.292154461145401, -0.901108980178833, -1.9550180435180664, 0.4592307507991791, 1.6843692064285278, 0.03583874553442001, 0.5126602649688721, -0.9620259404182434, -3.966357469558716, 0.7768591046333313, 0.25947627425193787, 0.38081419467926025, -0.20646744966506958, 1.987952709197998, -2.0828640460968018, -0.5162715315818787, 0.05702068284153938, -0.949988067150116, -0.5621948838233948, 0.011006774380803108, -0.43175873160362244, 1.1689082384109497, 1.5943093299865723, -0.2542876601219177, -0.9923917651176453, 1.4273526668548584, 0.3634667694568634, -0.6714635491371155, 2.1944000720977783, 0.6807679533958435, -0.7704513072967529
1.0927916765213013, -1.5463261604309082, -0.6957168579101562, 1.5375815629959106, 0.4533533751964569, 0.8522145748138428, 0.49117177724838257, 1.9709631204605103, 0.21334107220172882, 1.869542121887207, 0.9900651574134827, -0.042215537279844284, -0.5576001405715942, 0.038941897451877594, -1.4879266023635864, 0.6866015791893005, -1.5645647048950195, -1.3811256885528564, -0.9400064945220947, 0.7770340442657471, -0.6844015121459961, -0.5283242464065552, -0.27607545256614685, -1.029842495918274, -0.6566800475120544, 0.9223214387893677, -1.1118179559707642, 1.533340573310852, -0.5204020142555237, -0.3315964937210083, -0.49477627873420715, -0.5706048607826233, 0.9376847743988037, -0.8430228233337402, 0.5842121243476868, 0.4136275053024292, 0.3119596540927887, -1.193530797958374, 0.04989515244960785, 0.8933762311935425, 0.02598595805466175, 1.3676429986953735, 0.4798682928085327, 0.5535594820976257, -1.5198248624801636, 1.3191226720809937, 1.9329006671905518, -0.5485016703605652, -0.8248279094696045, 1.0774832963943481, 2.536978244781494, -1.0812592506408691, -0.0032823393121361732, 0.009956720285117626, -0.010634836740791798, -0.2402462214231491, -1.5162138938903809, -0.3753933906555176, 1.4368433952331543, 0.14905939996242523, 1.2231085300445557, -0.3611311614513397, 0.6404170393943787
-1.3372074365615845, 1.9158130884170532, 0.5084781050682068, -1.0689408779144287, 1.1489871740341187, -0.5425726771354675, 0.12745127081871033, -0.5950478315353394, 1.402532696723938, -0.2983705699443817, 1.1855043172836304, -0.5192853808403015, -2.029165267944336, 1.486830234527588, -0.4946025311946869, -0.49025845527648926, 0.809464693069458, 1.1048310995101929, 0.39848753809928894, -0.49001798033714294, -1.2641932964324951, -0.320892870426178, 0.979008674621582, -1.0533876419067383, 0.6107900738716125, 0.8353503346443176, -0.5552157163619995, -0.03899063915014267, -0.7942689061164856, 1.0020740032196045, -1.7599982023239136, -0.353838711977005, 0.76190584897995, -0.7946346402168274, -1.4141569137573242, -0.9925908446311951, -0.1324043571949005, 1.644269347190857, -1.2875168323516846, 1.9098933935165405, 1.333012342453003, -0.52223801612854, 0.8680478930473328, 1.2492648363113403, -0.7221460938453674, 0.4239501357078552, -0.4271540939807892, -1.0916191339492798, -0.813853919506073, -0.34566348791122437, 1.4070638418197632, -0.03206481784582138, 0.06571155786514282, 1.3867805004119873, 0.05807667225599289, -0.04505592957139015, 1.5889581441879272, -0.40710973739624023, 0.01955622248351574, -0.5754849910736084, 0.7450767755508423, -0.35846200585365295, -1.0526745319366455
-0.7528499960899353, 0.06865988671779633, -0.6340547204017639, 2.472660779953003, -0.06226073205471039, 0.8348027467727661, -1.1948330402374268, -1.1729568243026733, -0.6464419960975647, -0.9013035893440247, -0.9186076521873474, -2.172149181365967, 0.8011404871940613, -0.14978095889091492, 1.2905317544937134, -0.12908731400966644, 0.26029399037361145, -0.42646482586860657, -1.0909944772720337, 0.8860725164413452, 1.8630574941635132, 1.2606230974197388, -0.8942229747772217, 0.0529450923204422, 0.6612662672996521, -0.8229183554649353, 1.2033929824829102, -0.7461001873016357, 0.45236217975616455, -1.337031602859497, -0.18566355109214783, 1.1554843187332153, -0.031569480895996094, 0.12015402317047119, -1.1479003429412842, -1.1668931245803833, 1.8527272939682007, -1.3890316486358643, 0.10306425392627716, 0.8077382445335388, 0.8684427738189697, -0.3581118881702423, -0.2446630746126175, -0.32715335488319397, 2.2455506324768066, 1.5860748291015625, -0.6280509233474731, 0.5258964896202087, 1.1075003147125244, 0.3729316294193268, 0.48419415950775146, -1.6322208642959595, 0.20175227522850037, 0.9055152535438538, -0.29126036167144775, -0.628466010093689, -0.6584928035736084, 0.6038575172424316, 0.7210997939109802, -1.5796480178833008, 0.44850343465805054, -0.08827032893896103, 1.077562689781189
0.6931335926055908, 0.06731779873371124, -0.18997052311897278, 0.57933109998703, -1.7724099159240723, 1.6385754346847534, -1.7255514860153198, -0.26680314540863037, 0.3652409613132477, 0.11866313964128494, 0.4148861765861511, 0.9760454297065735, 0.914879560470581, 0.30276960134506226, -0.1297922432422638, -0.7517721056938171, -2.082284450531006, 1.258191466331482, 0.1574070155620575, -0.3027745485305786, 0.5480723977088928, -0.7529981136322021, 0.40800583362579346, 0.29547250270843506, 1.6985822916030884, 0.25978952646255493, -0.21652686595916748, 0.9143984913825989, -0.5757896900177002, 0.3095910847187042, 0.17503054440021515, -0.6589168310165405, 0.10301939398050308, -1.6499903202056885, -0.6907410025596619, 0.3320157825946808, -2.0724146366119385, -1.0029712915420532, -0.5609580874443054, -0.9809962511062622, 0.4333852231502533, -2.2250523567199707, 1.0253605842590332, -1.240956425666809, -0.8223516345024109, -0.01939406618475914, -1.446655035018921, -0.7478685975074768, -0.9681945443153381, -0.04555057734251022, 1.441098928451538, 0.43559861183166504, -0.7730357050895691, -0.35830119252204895, -1.2636502981185913, -1.1169228553771973, 0.8787469863891602, 0.020156871527433395, 0.2067708522081375, -0.17031671106815338, 0.12305377423763275, -0.5196056962013245, 0.02088826522231102
2.2601094245910645, -1.6673147678375244, -0.8933822512626648, -0.5136570930480957, 0.14194658398628235, -0.3314838707447052, -0.7600347399711609, 3.4295506477355957, -0.4621422290802002, 0.24245840311050415, -0.507403552532196, 0.6912175416946411, -0.6513012647628784, -0.826922595500946, 0.49468183517456055, 0.7815795540809631, 0.24175366759300232, 1.1897104978561401, 0.3983924090862274, -0.2794150114059448, 2.123690366744995, -0.3080235421657562, 0.8422638773918152, 0.8354283571243286, -0.9904404878616333, -0.08223912119865417, -0.044951535761356354, -0.5914909839630127, -0.42431551218032837, -0.27290427684783936, 1.2785568237304688, 1.4720107316970825, 0.30498889088630676, 0.32346948981285095, 0.7319044470787048, 0.9362141489982605, 0.05501591041684151, 0.6330782175064087, -0.6064562201499939, 1.732734203338623, -0.42518138885498047, -0.01849217340350151, 0.8292044997215271, 1.5635749101638794, -0.22185754776000977, -0.3052067756652832, 0.22742772102355957, -0.7945874333381653, 0.6230843663215637, -0.6919445395469666, -1.2407646179199219, -0.6704009175300598, 2.1424453258514404, 1.273558259010315, 1.536460280418396, 0.5965768694877625, 0.2815037965774536, -1.0053482055664062, -0.42891600728034973, -1.690930962562561, 1.2596347332000732, -0.22433088719844818, 1.431985855102539
-0.09941443800926208, 0.693565845489502, -0.6467839479446411, 0.11478617787361145, -1.2944328784942627, -0.04603155329823494, 1.6670318841934204, 3.2174460887908936, 0.2802698016166687, -0.15863372385501862, -1.18191659450531, 0.6160097122192383, 0.74961918592453, -1.2806544303894043, -1.463221788406372, -0.21992704272270203, 1.2534977197647095, -1.118884563446045, -0.06350968778133392, 0.6577059030532837, -0.13700884580612183, -1.5311627388000488, -0.7010031938552856, 1.4487228393554688, -1.000226378440857, -1.2029880285263062, 1.6297260522842407, -0.7428774833679199, 1.5111165046691895, -1.2399773597717285, 0.38258975744247437, 2.1854937076568604, -0.8345646858215332, -0.647942841053009, 1.5324898958206177, -0.21466784179210663, -1.7737643718719482, -1.4924440383911133, -0.2548183798789978, -0.023934781551361084, -1.0477356910705566, 0.1256357878446579, 0.2454417645931244, 1.1567062139511108, -0.2852638065814972, 2.0870962142944336, -0.19019962847232819, 0.4616476595401764, 0.4805659055709839, -1.3738741874694824, -0.8263000845909119, 0.7933101058006287, -0.8019654154777527, 0.7301924824714661, 0.02731032483279705, 0.10868170857429504, 0.18460603058338165, 0.041397009044885635, -0.5226168036460876, 0.5564926266670227, 0.1396331936120987, -1.518585205078125, 0.6761728525161743
1.9382531642913818, -0.357104629278183, 1.0706006288528442, 1.2369437217712402, 0.6773213744163513, 2.444897413253784, -0.2835250496864319, -0.46223434805870056, 1.9082908630371094, -0.3370267450809479, 0.9882646799087524, -0.16058896481990814, 0.21228119730949402, 2.1437768936157227, -1.430465579032898, -1.0419498682022095, -0.1445849984884262, 0.8375155329704285, -0.7100126147270203, 0.49366945028305054, -0.6236692667007446, 0.44220539927482605, -0.22321151196956635, 0.6088542938232422, -0.7556806206703186, 0.7019732594490051, 1.058966875076294, 0.26136693358421326, 0.5483311414718628, -0.7640592455863953, 1.3144166469573975, 0.1923729032278061, -0.03809583559632301, 1.1140087842941284, 0.8803615570068359, -0.326203852891922, 0.9413084387779236, -0.6126710176467896, -1.472398281097412, -1.5669914484024048, 0.030748236924409866, 1.2846728563308716, 1.6749267578125, 0.7640846967697144, -1.3655521869659424, -1.3681707382202148, 0.04076750949025154, 0.5814661383628845, -1.562142252922058, 0.2761090397834778, 1.3952580690383911, 0.6502642035484314, -1.4612890481948853, -0.8922619819641113, 1.7266106605529785, 0.433188259601593, -0.2458358258008957, -0.3991779386997223, -0.3715062737464905, 0.13842296600341797, 0.5399872660636902, 0.4683593511581421, -0.053584419190883636
0.5344848036766052, 0.6918273568153381, 1.559734582901001, -0.6978638768196106, 0.22449363768100739, 0.8715741634368896, 1.8404890298843384, -0.3402321934700012, -0.309736043214798, 0.46258437633514404, -0.02078661322593689, -0.7357841730117798, -0.6504595875740051, 1.113775372505188, -0.5095438361167908, 2.042820930480957, 0.3901039958000183, -0.21999944746494293, 1.2031667232513428, -2.392615795135498, 0.6912062764167786, 1.2465753555297852, 0.49511048197746277, -2.1850616931915283, 1.5869684219360352, 0.9409582018852234, -0.6972585916519165, -0.8326516151428223, 1.3759381771087646, 0.6881738901138306, -1.0406110286712646, -1.018171787261963, 0.5670855641365051, 0.5735937356948853, 0.3716162145137787, -0.6608744263648987, -0.5798884630203247, 0.8334338068962097, 1.1033262014389038, 1.3459720611572266, -0.11182909458875656, 0.18025115132331848, -0.799936830997467, -0.5288172364234924, 0.526522159576416, 2.529038429260254, 0.34282001852989197, -0.9202226996421814, 0.06548421084880829, 0.8641364574432373, -0.07924307882785797, -0.9681932330131531, -0.25871598720550537, -0.6376861333847046, 2.3561062812805176, 0.9214513897895813, -1.7567819356918335, 1.4257334470748901, 1.0240590572357178, 0.77757728099823, 1.5497691631317139, 0.48730751872062683, -1.677868366241455
-0.6453227996826172, 0.48739197850227356, -0.46998146176338196, 0.8865949511528015, 0.6478436589241028, 0.3687644302845001, -0.002668143715709448, 1.338374376296997, -0.752056896686554, -1.175905704498291, -0.04764839634299278, 0.7973167300224304, -0.042720600962638855, -0.4425732493400574, -0.5870563983917236, 1.5839356184005737, -0.8620165586471558, 0.41863417625427246, -0.03938855230808258, -0.2920844256877899, 1.5073575973510742, -2.5227839946746826, -0.925551176071167, -0.6873747706413269, -0.21191568672657013, -1.2836843729019165, 0.3537997603416443, 1.610554814338684, -1.1130648851394653, -0.305611789226532, -0.1725081205368042, 0.7763245105743408, 0.09972143173217773, 1.490834355354309, -0.06299861520528793, 0.14830653369426727, -1.29695725440979, 0.35718220472335815, 0.08796438574790955, 0.6774986982345581, 0.3415471613407135, 0.7574655413627625, -0.5363962054252625, 0.03412046283483505, 0.5025463700294495, 0.8140286207199097, -0.10584776103496552, -0.11233242601156235, 1.6745916604995728, 1.0435700416564941, 0.46649596095085144, -1.1864880323410034, 0.30306220054626465, 0.857828676700592, 1.9276586771011353, -0.8246155977249146, -0.31221461296081543, -0.7007745504379272, -0.7660549879074097, 0.3463154137134552, 0.3558725118637085, -0.540408194065094, -0.2783869802951813
2.551180362701416, -0.5861916542053223, -0.3945191204547882, -1.2348884344100952, 0.4357840418815613, -0.4189814627170563, -1.4784737825393677, -1.2282809019088745, 0.4229520857334137, -1.4953864812850952, 0.22555820643901825, -0.30582866072654724, -0.008306795731186867, -1.5824054479599, 0.41623619198799133, -0.38029974699020386, -0.5174288749694824, -1.0560137033462524, -0.6057087779045105, 0.5806708335876465, -0.9222460389137268, -0.8025191426277161, -0.21463489532470703, -0.4056095480918884, -0.37976714968681335, -0.05051826685667038, -1.105602741241455, 0.1506217122077942, 0.2887166440486908, -0.015030449256300926, 0.629395067691803, -0.9901314377784729, 0.07953304797410965, -0.7989351749420166, 0.1090036928653717, 0.6609125733375549, 0.04926811158657074, -0.6518699526786804, 0.6715553998947144, 1.4820187091827393, 2.223371744155884, -1.3490766286849976, -0.13021910190582275, 0.2723676860332489, 0.6918521523475647, 2.171834945678711, -0.1116386353969574, 1.100162386894226, 1.6518633365631104, 0.6893197298049927, 3.6834216117858887, -0.2502039670944214, 1.0812662839889526, -0.11779510974884033, 2.676168441772461, 2.9927945137023926, 3.298771619796753, 0.43325507640838623, 0.8055629730224609, 0.8041255474090576, -0.7274295687675476, 1.6532740592956543, -0.09059321135282516
-0.42547205090522766, 0.813135027885437, 1.0917290449142456, 0.8811448812484741, 1.0983798503875732, -0.7967913746833801, 0.2000960111618042, -1.30619478225708, 0.7718499302864075, 1.2890963554382324, 0.5455266833305359, 0.9946707487106323, -0.8210934996604919, -0.9716570377349854, -0.008600789122283459, 0.24028922617435455, 0.012431038543581963, -0.40353068709373474, 0.13224950432777405, 0.01794825680553913, -0.6032385230064392, 0.2821197807788849, 1.9556348323822021, -1.050948143005371, -1.2505097389221191, 2.04495906829834, 0.944375216960907, -0.9726815223693848, -0.5913941264152527, -0.15347051620483398, 1.2850531339645386, 0.9355660676956177, -0.6575263738632202, 1.4756022691726685, -1.098022699356079, -2.3596930503845215, -1.338250756263733, 1.5312250852584839, -0.2936943471431732, -0.13984210789203644, -1.0750110149383545, 4.126706123352051, -0.4809165298938751, -0.14024688303470612, 1.2514861822128296, -0.7485880851745605, 0.9711580276489258, 0.5789707899093628, 2.7216241359710693, -0.3721362352371216, 0.3931557536125183, 2.6555449962615967, -0.43321022391319275, -0.5303293466567993, 0.06479381024837494, 0.657794177532196, 0.0956425666809082, 1.8915660381317139, 1.0790276527404785, 0.6463925838470459, 1.4554340839385986, -0.043818019330501556, -0.17499622702598572
-0.23820644617080688, -2.057396650314331, -0.24076661467552185, -1.458386778831482, 0.19356007874011993, -0.5236418843269348, -0.2903733253479004, 0.592106819152832, -1.4568767547607422, -0.560770571231842, -1.0050357580184937, 0.2327696532011032, 0.5916113257408142, -0.18454837799072266, -0.25808748602867126, 0.20112675428390503, 0.9526807069778442, 0.6757601499557495, -0.8599861264228821, 0.08369302749633789, -0.39122095704078674, 0.2268172651529312, 0.8626924753189087, -0.3685411214828491, 1.143924355506897, 0.9302756190299988, -0.36485421657562256, 1.1221505403518677, 0.2820187211036682, 0.15507011115550995, 0.36107611656188965, 0.8527238368988037, 1.1078369617462158, 0.5224878191947937, 0.8718109130859375, 0.6204628348350525, 0.6576559543609619, 1.6396088600158691, 0.8619312644004822, 0.5640571117401123, -1.5020304918289185, 2.609612226486206, 0.449026495218277, -0.1541484147310257, 2.9717488288879395, 1.2143081426620483, 0.8248550295829773, 0.3298654556274414, -0.9036495685577393, -2.3495969772338867, -0.1084778681397438, 2.835965871810913, -0.05462309718132019, 0.6937134861946106, 1.342003345489502, -1.1967767477035522, 0.7759777903556824, -0.8882084488868713, -2.119337558746338, 0.1887785643339157, -0.048042889684438705, -0.27894482016563416, 1.1048458814620972
4.76639986038208, -0.09837061166763306, -0.46969738602638245, -0.3270203173160553, 0.43149954080581665, -0.3504573106765747, -0.007932335138320923, -0.4628039002418518, -0.295795738697052, -0.41210052371025085, 0.3526184856891632, -1.7413610219955444, -0.747671902179718, -1.1738290786743164, -1.1310063600540161, -0.2886771261692047, -0.3001842498779297, -0.15285149216651917, -0.14274843037128448, -0.3263472318649292, -1.5742219686508179, -0.605972170829773, -0.8881433606147766, -1.6472415924072266, 0.6729485392570496, 0.04278762638568878, -0.6232233643531799, -0.022405831143260002, -0.11953113228082657, -0.9399498701095581, -0.5747694373130798, -1.3826444149017334, 0.645443856716156, -0.9129707217216492, -0.11699789017438889, -1.282529592514038, -1.3008673191070557, -0.6764228343963623, -1.3423534631729126, -0.18031293153762817, -0.8084794878959656, 1.2777708768844604, -0.699499785900116, -1.0454286336898804, -0.25093239545822144, 1.4911004304885864, 0.21545273065567017, 0.11453886330127716, 0.5351250171661377, 0.6732542514801025, -1.041852593421936, 1.2854313850402832, 0.5804669857025146, -0.6946955323219299, 0.6026990413665771, 0.7152917385101318, -2.233794689178467, -0.3868851363658905, -2.1677677631378174, 0.8601003289222717, -0.4907204210758209, -0.04454464837908745, -0.533146858215332
4.427075386047363, 0.08328636735677719, -0.3892464339733124, -0.46411851048469543, -0.27705395221710205, -0.48218590021133423, -0.6325246691703796, -0.8005828261375427, -0.13841354846954346, -1.6758233308792114, -0.1456337869167328, -0.39812421798706055, 0.1820540577173233, -0.8759598135948181, -0.05682286620140076, -0.1630271077156067, -0.3373644948005676, -1.2690376043319702, -1.1619646549224854, -0.6301635503768921, -0.5313513278961182, -0.7940288186073303, -0.5309620499610901, -0.5478552579879761, -0.18435005843639374, -0.10010159015655518, -0.9411457180976868, -0.046033039689064026, 0.10568959265947342, -0.5760628581047058, -0.33074086904525757, -0.22706997394561768, -1.0574336051940918, -0.6677731871604919, -0.009416619315743446, -0.1582472026348114, -0.22613345086574554, 2.1792585849761963, -0.07766591757535934, 0.8720718622207642, 2.904909610748291, 1.6122263669967651, -0.01571572571992874, -0.03791484981775284, -0.08675544708967209, -0.39079999923706055, -0.8716278076171875, -0.003654837841168046, 0.2248774617910385, 1.1478184461593628, 2.83941388130188, -0.19117268919944763, 0.014190645888447762, -0.12723450362682343, 3.4419188499450684, 2.2537479400634766, 1.464457631111145, -0.9799951910972595, 0.9853567481040955, -0.5742657780647278, 0.33055374026298523, 0.4607234299182892, -2.357278347015381
3.7334964275360107, -0.33690646290779114, -0.8201554417610168, 0.9522414803504944, -0.6349337100982666, -1.4370851516723633, 1.2563278675079346, -0.08745165169239044, 0.7580198645591736, -1.3405359983444214, -0.2960744798183441, -0.028625601902604103, -0.1664055734872818, -0.2296590954065323, -0.8635191917419434, 0.39028069376945496, -0.13390012085437775, -0.33588850498199463, 0.1927104890346527, -0.23788633942604065, 0.21994376182556152, -0.18472832441329956, -0.6657432913780212, 0.0970764011144638, 0.5716906189918518, -0.2475239485502243, -2.26017689704895, -0.47019991278648376, 0.3403090238571167, 0.8210914134979248, 0.3177981376647949, 1.3160178661346436, 0.2649233937263489, 0.04935901612043381, 0.5686938166618347, -0.9102580547332764, -0.10527654737234116, -0.3015505075454712, 0.7244198322296143, -0.6155422329902649, 0.10137190669775009, 1.3005753755569458, 0.13760210573673248, -0.1237875297665596, 0.6250886917114258, 0.4632700979709625, 1.3136552572250366, -0.19645999372005463, -0.026750382035970688, -0.13899268209934235, -1.449123740196228, 1.8640146255493164, -0.46696946024894714, -1.2268810272216797, 1.1735191345214844, -1.9673994779586792, 1.1217349767684937, 0.9685405492782593, 1.0155308246612549, 0.5064043402671814, -0.9188366532325745, 0.551236629486084, 0.27798599004745483
3.805123805999756, 0.6088334918022156, -0.2344084233045578, -0.07773417979478836, -0.3244980275630951, -0.7828315496444702, -0.1274113655090332, 0.4467795789241791, -0.9759820699691772, 0.2997344732284546, 0.008147978223860264, 1.2283283472061157, 0.1278723180294037, -0.3394795358181, -0.5041611194610596, -0.16800448298454285, 0.2765060365200043, -0.5051849484443665, -0.034353405237197876, -0.9337536692619324, -0.3716452717781067, -1.0369212627410889, 0.8085232973098755, -0.8860933780670166, -2.7210919857025146, -0.5447555184364319, 0.5430613160133362, 0.08313214778900146, -1.0790656805038452, 1.2295258045196533, -0.051357246935367584, -0.8451436161994934, 0.2523312270641327, -0.5417563915252686, -0.09826066344976425, 0.1294821798801422, -2.149401903152466, 1.6233155727386475, -1.9043946266174316, 0.967189371585846, 0.43865904211997986, -0.08235614746809006, 0.30846744775772095, 0.24751462042331696, 2.2057101726531982, 0.6877565979957581, -0.3045991361141205, 0.15134014189243317, 0.01048234198242426, 0.2038469910621643, -0.8797395825386047, 0.07436208426952362, -1.6189804077148438, -0.32236507534980774, -0.7232575416564941, -1.2959486246109009, 0.9752550721168518, -0.5409760475158691, 0.6001213192939758, -1.1368119716644287, 0.3246272802352905, 0.8686176538467407, -0.5071539878845215
2.6633613109588623, 0.2799966633319855, -0.3431163728237152, -0.30112528800964355, -0.8848574757575989, -0.5914639234542847, 0.02176862210035324, 0.19928650557994843, -0.17272475361824036, 0.6092524528503418, -0.9579658508300781, 0.11205073446035385, 0.3006303608417511, -0.5396584868431091, -1.0520985126495361, -0.13140660524368286, -1.2259917259216309, -0.06976443529129028, 0.08036327362060547, -0.9530290365219116, 0.6387178897857666, 0.680823564529419, 0.09036017954349518, -0.5350511074066162, 0.13437595963478088, -1.0537573099136353, -0.23249651491641998, -0.1448201686143875, -0.5561734437942505, -0.13581891357898712, 0.23291455209255219, 0.7125101685523987, -1.369334101676941, -1.419642448425293, 0.36903637647628784, -2.291692018508911, -0.4949685335159302, 4.043643474578857, 0.7540457248687744, -0.5590828061103821, -0.17340296506881714, 4.712329387664795, 0.6499925851821899, -0.04031088948249817, -0.014687782153487206, 3.566869020462036, -0.34203606843948364, 0.38057661056518555, 0.22803731262683868, 0.15788917243480682, -0.01694917120039463, 2.0023179054260254, 0.5636724233627319, -0.6402689814567566, 0.6715146899223328, -1.4885293245315552, 1.290679693222046, 0.7850921154022217, -1.6088964939117432, 0.688987672328949, -1.1862553358078003, -0.9527515769004822, 0.2239682674407959
-1.6684499979019165, -0.3437650203704834, 0.14458581805229187, 0.4292377531528473, -0.9986291527748108, -0.4854583144187927, -0.5331858992576599, -1.5478044748306274, -0.2208794355392456, -0.5116463303565979, -0.6295462846755981, -0.8486878275871277, 0.014144614338874817, -0.2979167699813843, -0.2307930439710617, -1.0697416067123413, -0.5177454948425293, 0.18389490246772766, -1.7101620435714722, 0.4342937469482422, 0.5429359674453735, -1.1602355241775513, 0.16057483851909637, -0.9975103735923767, 0.10028363764286041, -0.6780639290809631, 0.4034140408039093, -1.3121107816696167, -0.42777273058891296, 0.2916503846645355, 0.3447987735271454, -0.30476903915405273, -0.2307669222354889, -0.4018149971961975, -1.651982307434082, -0.8784518837928772, -0.6244693398475647, -0.004476980306208134, 0.03280079364776611, 1.6020197868347168, 2.211050033569336, 0.692435085773468, 0.5992400050163269, -0.02212335541844368, 0.18794876337051392, 0.311995267868042, -1.8950424194335938, 0.6664818525314331, 1.2090731859207153, 1.6661126613616943, 3.881948232650757, 0.8728446364402771, 0.3697766065597534, 0.40986326336860657, 0.7634642124176025, 2.9977636337280273, 3.1439015865325928, 0.3510597050189972, -0.11781910806894302, 0.393561989068985, 0.7487701177597046, 0.20989489555358887, -1.0145931243896484
-0.9722769260406494, -1.0318219661712646, 1.7263168096542358, 0.02661961317062378, -0.5180811882019043, -0.4366738200187683, 1.2449167966842651, -0.4923487603664398, -0.24676363170146942, -0.584743082523346, 1.3384990692138672, -1.0079115629196167, 1.4542641639709473, -1.612140417098999, -0.4097779095172882, 1.2302427291870117, -0.38134628534317017, 0.1709682196378708, -0.49849337339401245, -0.9169792532920837, 0.6023159027099609, -0.43987029790878296, -1.5068718194961548, -1.5565364360809326, -1.4845342636108398, -0.19809001684188843, 1.5699970722198486, -0.24532394111156464, 2.59651255607605, 0.7499973177909851, -0.5391046404838562, -0.13609658181667328, 0.07298536598682404, 1.3734163045883179, 0.7225598096847534, -0.7805883288383484, 1.5172189474105835, 2.367973804473877, -0.33970582485198975, 1.5589457750320435, 0.1722063422203064, 0.1292455941438675, -0.546942412853241, 0.039881568402051926, 0.08310294896364212, -0.7181002497673035, 0.9100949168205261, 0.044555772095918655, 0.14608794450759888, 1.7474437952041626, 0.1539756953716278, -1.0723727941513062, 1.034454345703125, 0.15036772191524506, 1.6248054504394531, -0.5639262199401855, -0.5352293252944946, -0.14618733525276184, 0.44983649253845215, -1.3031821250915527, 2.044079065322876, -0.03160250559449196, 0.8337364196777344
3.1382229328155518, 1.0303863286972046, -0.8172073364257812, 1.1329540014266968, -0.8587315678596497, -0.8053922057151794, -0.5532533526420593, -0.19121308624744415, -0.3030233085155487, -0.2971944510936737, 0.835700511932373, 1.0121328830718994, -0.7721645832061768, 0.02103998512029648, -0.696865975856781, -0.079903744161129, -1.5682612657546997, 0.06290687620639801, -0.5267981290817261, -0.35940122604370117, -1.3477638959884644, 1.5789837837219238, 0.40153563022613525, 0.02774863876402378, -0.7140129208564758, 0.17751094698905945, 0.21117445826530457, 1.0085606575012207, -0.2857677936553955, 0.34355002641677856, 0.909658670425415, 1.3143444061279297, 0.5262151956558228, -0.9187552332878113, -1.2475883960723877, -0.6469240188598633, -1.3868145942687988, -1.1486701965332031, 1.3197555541992188, -0.1467781662940979, -1.0395528078079224, 1.7531485557556152, 0.5548862814903259, 0.1612352579832077, -0.30280956625938416, 0.40977877378463745, -0.775033175945282, -0.16853030025959015, -1.9383392333984375, 0.8415070176124573, 1.3537129163742065, -0.23944716155529022, 0.9845921397209167, 0.019597498700022697, -0.19240182638168335, 0.4281265139579773, 0.7042959928512573, 0.07144178450107574, 1.6149417161941528, 0.19178295135498047, -1.3065314292907715, 0.5316779017448425, -1.0895740985870361
1.8946259021759033, -1.2421011924743652, 0.5872986316680908, -0.041888169944286346, 0.47621163725852966, 0.2543281018733978, 0.4093918800354004, 0.750023603439331, -0.38481467962265015, -0.2201152741909027, -2.1682159900665283, -0.3090463876724243, -0.9758003950119019, 0.0624428316950798, 0.7927857041358948, -0.6226194500923157, -0.07935408502817154, -0.21621224284172058, 0.08551859855651855, -0.028119612485170364, 0.23950418829917908, -1.9591885805130005, 0.20481881499290466, 0.19917531311511993, -0.05118343234062195, -0.5008808970451355, -0.21553145349025726, -0.5989915728569031, -1.2178529500961304, -0.4038066267967224, -0.3910980820655823, -1.0730578899383545, -0.43177488446235657, -0.8534454107284546, -0.5428864359855652, 0.12678436934947968, -0.026254955679178238, 0.9750010371208191, 0.8284619450569153, -0.45388805866241455, 2.0353589057922363, 2.7689387798309326, 0.022826965898275375, -0.6167827844619751, -1.6371376514434814, 2.1656789779663086, 0.7447876930236816, 0.6948076486587524, 2.138455629348755, -1.079239845275879, 0.8720713257789612, 2.071638822555542, -1.0369099378585815, -0.5033665895462036, 0.39123883843421936, 0.09809286147356033, 0.6830227375030518, 0.5091867446899414, 0.12746058404445648, -0.8483599424362183, -0.4137764573097229, 1.3877962827682495, -0.16442589461803436
2.6730222702026367, -1.1150972843170166, 1.0088844299316406, 0.37649956345558167, -0.6565008163452148, -0.01923643797636032, -0.9753148555755615, -0.9267699122428894, 0.9285327792167664, 0.7079683542251587, -1.1266233921051025, -0.6271898150444031, -0.38577306270599365, 0.5560385584831238, -2.7548632621765137, -0.2695522904396057, 0.33992722630500793, -1.7923258543014526, 0.5212286710739136, -0.28195783495903015, -1.0398826599121094, -0.022257475182414055, 0.49529406428337097, -1.1075605154037476, 0.4429627060890198, -0.04762551933526993, 0.5610324740409851, -0.276856005191803, -1.100929856300354, -0.009507989510893822, -0.6665991544723511, -1.1470074653625488, -0.6402294039726257, 0.3027373254299164, -1.640115737915039, -1.4207117557525635, 0.32691651582717896, 1.2692527770996094, 0.16430293023586273, -0.8195318579673767, -1.9909226894378662, 3.3879010677337646, 1.092380404472351, 0.20824618637561798, -0.011142358183860779, 1.0472817420959473, -0.7247365713119507, -1.8574262857437134, 0.5846057534217834, 0.5985035300254822, -0.8136732578277588, 0.28348734974861145, -0.573320209980011, 0.8854896426200867, 0.183765709400177, 0.7808488011360168, 0.24565841257572174, -0.04375037923455238, -0.004745417274534702, 0.8469409346580505, -0.2572641968727112, 1.546658992767334, -1.4888715744018555
3.936340570449829, -0.1620195358991623, 0.1875939816236496, -0.03164385259151459, 0.4439759850502014, -0.7869988679885864, 0.08827109634876251, 0.3146095275878906, -2.5717735290527344, -0.5780912637710571, -0.1453714519739151, -1.4975361824035645, -0.18659435212612152, -0.7704034447669983, -0.10929305106401443, -1.3244969844818115, 0.5716874599456787, 0.4014265239238739, -0.6010370254516602, -1.556316614151001, -1.4267375469207764, -0.06267478317022324, -1.4244930744171143, -0.5419189929962158, 0.2861800491809845, -1.2220975160598755, -1.0030980110168457, -0.2637520432472229, 0.24444545805454254, -0.6587308049201965, -0.07227747142314911, -0.990719735622406, -0.6743333339691162, -0.16076289117336273, -1.3321219682693481, 0.4894093871116638, -1.0446490049362183, 0.25131845474243164, 0.06432449072599411, 0.862984299659729, 3.620828866958618, 2.3383798599243164, 0.061872173100709915, 3.1925711631774902, -0.29122787714004517, 0.6014644503593445, -0.5178964138031006, -0.7568888664245605, 0.3255726099014282, -0.9904016256332397, -0.12262783944606781, 1.9259711503982544, -0.0006042669992893934, 0.24496911466121674, -0.9954131245613098, 1.3258509635925293, 2.5463545322418213, 0.18701063096523285, 0.17365305125713348, -0.7240849733352661, -1.1611626148223877, -0.22482085227966309, -0.6447910666465759
3.038440465927124, -0.14991207420825958, -1.013929009437561, -0.48246148228645325, -1.212588906288147, -0.5115169882774353, 0.018118582665920258, -0.6892743110656738, -1.3204660415649414, -0.8201202750205994, -0.09177698940038681, -0.8864056468009949, -1.68714439868927, -0.38254475593566895, -0.9999311566352844, 0.1907973438501358, 0.11568927019834518, -1.2481011152267456, -0.9414925575256348, -0.1092449426651001, -0.6635410189628601, -0.36819398403167725, -0.3433111310005188, 0.20173585414886475, -0.5906193256378174, -1.0180909633636475, -0.42923998832702637, -0.9870486259460449, -0.6290284395217896, -0.48297443985939026, -0.30129528045654297, -0.5062912702560425, -1.7964979410171509, 0.0036139022558927536, -0.46169722080230713, -0.10307794064283371, -0.4223789870738983, -0.24795563519001007, -0.25240716338157654, 0.3668716847896576, 0.3672741949558258, 0.21003024280071259, 2.4131298065185547, -1.1309982538223267, 0.059944190084934235, -1.2735316753387451, 0.10016586631536484, 1.0798121690750122, 0.7910403609275818, 1.8765321969985962, 2.9525344371795654, 0.8382586240768433, -0.3004057705402374, -0.29706090688705444, 2.533054828643799, 0.7184689044952393, 1.5659635066986084, 3.1317906379699707, 0.3812812566757202, 1.9821081161499023, -1.6618112325668335, -0.26171037554740906, -1.2686820030212402
0.747448742389679, -0.3299344480037689, 1.2548630237579346, -0.8353714942932129, 0.007219322491437197, -0.29751744866371155, 0.3385944366455078, 0.4683368504047394, 0.5264197587966919, -0.9694011211395264, -0.06883653998374939, -0.15056860446929932, -0.5584591627120972, -0.1294923722743988, -0.48648542165756226, -1.1263184547424316, 0.006895533762872219, 0.19826747477054596, 0.6539164185523987, -0.6108651757240295, -1.0239704847335815, -1.3673540353775024, -2.023287773132324, -0.3300969898700714, -0.07538124173879623, 0.07927919924259186, 0.6164531707763672, 1.1585286855697632, 0.23998869955539703, 0.3902016878128052, -0.1960931122303009, 0.5567548871040344, -0.2665603756904602, 0.004593850113451481, -1.1295301914215088, -0.193736732006073, -0.5802358388900757, -0.22355380654335022, 0.8902142643928528, -0.448060542345047, 0.4140831232070923, 2.1802761554718018, -1.532037377357483, 0.7031477689743042, 0.17687469720840454, 1.4485629796981812, 0.41600367426872253, 0.8407983779907227, -0.031010005623102188, 0.00244142790324986, 0.20281055569648743, 0.5217065811157227, 0.6340370774269104, 0.05338768661022186, 0.2854355275630951, 0.8992137312889099, 0.8139537572860718, 0.6395872235298157, -0.001134974416345358, -0.04242368042469025, -1.2475781440734863, -0.6030986905097961, -0.6261450052261353
-2.39355731010437, 0.9388949871063232, -0.057113245129585266, -1.6297037601470947, 0.7028976678848267, 0.387289822101593, -1.6477413177490234, -0.20141935348510742, 1.76114022731781, 0.8225836753845215, 0.7786796689033508, -1.1979081630706787, 1.5943305492401123, 0.5797361135482788, 0.35043805837631226, -0.906771183013916, 0.7637044787406921, 1.6496164798736572, 0.628354549407959, 0.8972326517105103, 1.5512480735778809, -1.308895230293274, 1.2123337984085083, -1.377476692199707, -0.7578287720680237, -0.19584016501903534, -1.398974895477295, 0.4605889618396759, 0.7569175362586975, 1.3422679901123047, -0.024438906461000443, 0.2691878378391266, 0.16097305715084076, 0.7616981267929077, 0.4116429090499878, 0.15701286494731903, -0.34174954891204834, -0.5214970111846924, -1.8964416980743408, -0.7927298545837402, 0.8454383611679077, -1.2359730005264282, 0.20089435577392578, -1.0358262062072754, -0.3118745982646942, -2.5626108646392822, 0.18518713116645813, -0.2486361861228943, -1.2441664934158325, 2.3330821990966797, 0.007241154555231333, 0.625232994556427, 0.5538266897201538, -0.9116971492767334, -0.6167420744895935, -0.5702413320541382, 0.06194063648581505, 1.2332229614257812, 0.406618595123291, -0.19896502792835236, -0.3135429918766022, -0.11983953416347504, -0.11568066477775574
3.919651508331299, 0.33553194999694824, -0.4552547335624695, -2.784381151199341, 0.49059659242630005, -0.3175753057003021, -1.0003007650375366, -0.5492169260978699, -1.0571568012237549, 0.0802767351269722, -1.2724322080612183, 0.3606467843055725, -1.8883752822875977, 0.19320762157440186, -0.8738077878952026, -0.5582206845283508, 0.14898407459259033, 0.47658222913742065, -0.43346288800239563, 0.04406779259443283, -0.6221506595611572, 0.7237277030944824, -0.4185534417629242, -0.633962869644165, 0.5407375693321228, 0.49836495518684387, -0.509101152420044, -0.5520519614219666, 0.6543157696723938, -0.2795385420322418, -0.8420853018760681, 0.01916986145079136, -2.3521041870117188, -0.8514276742935181, -0.7482081055641174, -0.3557223975658417, -0.024560023099184036, 1.0750675201416016, 0.010583590716123581, 0.5401999950408936, 1.3582401275634766, 3.745476484298706, 0.712101936340332, -0.8165332674980164, 0.638616144657135, 2.063005208969116, -0.3790047764778137, -0.531396746635437, -0.025049742311239243, 0.7461868524551392, 0.7913914322853088, 2.501152515411377, -0.5370456576347351, -0.3261350095272064, 0.01504895556718111, 2.0593478679656982, 1.5072580575942993, 1.0767654180526733, -0.40323489904403687, -0.8235853910446167, 0.04825085029006004, 0.9276200532913208, -1.4448683261871338
4.362978458404541, -1.5558792352676392, 0.7492653727531433, -0.3068319261074066, -1.7021006345748901, 0.44803372025489807, -0.024495748803019524, 0.028503311797976494, 0.5131686329841614, 0.6465561389923096, 0.3054870665073395, -0.09294582903385162, -0.7337980270385742, -0.4541035294532776, -0.16884496808052063, 0.31944048404693604, 0.09458882361650467, -0.9828444719314575, 0.6821231842041016, -1.292158842086792, -0.6084684729576111, 0.575542151927948, 0.535938560962677, -1.1136460304260254, -1.45237135887146, 0.7508609294891357, -2.6204144954681396, 0.23990373313426971, 0.4195069968700409, -0.5652287602424622, -0.1781364381313324, 0.4400455057621002, -2.2727444171905518, -0.9928107857704163, -0.9977705478668213, 0.7543290853500366, -0.13907670974731445, 1.5348376035690308, 0.2086421102285385, 1.105426549911499, -1.2515112161636353, 2.9881606101989746, -0.5712421536445618, -1.7673792839050293, 2.235886573791504, 0.8849204182624817, 0.5555797219276428, -0.3683958351612091, -0.4356013834476471, 1.216104507446289, -0.2727520763874054, 1.4245516061782837, -0.4253236949443817, -1.0674352645874023, 0.021264366805553436, 0.9108083844184875, 3.1085641384124756, 0.7852421998977661, -0.46164682507514954, -0.7371039986610413, 0.8499428629875183, 0.10966750979423523, 0.14527706801891327
4.637944221496582, -0.001028374070301652, 0.22599604725837708, -0.8693956732749939, -1.6595994234085083, -1.3552312850952148, 0.41771355271339417, 0.3961818218231201, -0.06903918832540512, -0.29775068163871765, -0.16913717985153198, -1.4660001993179321, -2.47058367729187, 0.8457714915275574, -0.25021660327911377, 0.2889373302459717, -0.16263499855995178, 0.09210439771413803, 0.4085071086883545, -0.4730966091156006, 0.625101625919342, 0.35565951466560364, 0.45805588364601135, -0.7529036998748779, 0.45968902111053467, 0.25206315517425537, 0.4516396224498749, 0.06706377118825912, -0.9361827373504639, -1.0271514654159546, -0.7125905752182007, -1.6504335403442383, 0.5280209183692932, 0.5144789218902588, -0.6645255088806152, 0.46666818857192993, -0.8742732405662537, 1.155637264251709, 0.1624612659215927, 1.002488374710083, 0.5715447664260864, 3.2327001094818115, -1.2397842407226562, 0.6555689573287964, 4.53558349609375, 2.4978857040405273, 0.1764429658651352, -1.3995734453201294, 0.1515161544084549, -0.3906234800815582, -0.46161219477653503, 3.4668943881988525, -0.09073594957590103, -0.16280235350131989, 0.7614337205886841, 0.7460453510284424, 0.11186996102333069, 0.341296523809433, 0.8948937058448792, 0.4252047538757324, 0.17548009753227234, 0.6482369899749756, 0.31980204582214355
1.2752264738082886, 0.021335061639547348, -0.3898948132991791, -0.84361332654953, -0.04173058643937111, -0.45733916759490967, -0.009694770909845829, -1.1383765935897827, -0.42437395453453064, -0.44067418575286865, 0.13816529512405396, -0.2288324236869812, -0.7385047078132629, 0.4913768768310547, -0.9283077716827393, 0.08435534685850143, 0.030200490728020668, 1.0045037269592285, 0.5649316906929016, 0.7040402889251709, 0.39393162727355957, 0.9527072310447693, 0.49008217453956604, -0.6213709712028503, -0.8336289525032043, 0.5474660396575928, 0.4745660722255707, 0.35266000032424927, 0.8681895136833191, -0.0007384235505014658, -0.3940298855304718, 0.8266986012458801, -1.5236188173294067, 0.7078511714935303, -0.33063966035842896, -0.5013054609298706, -0.15397478640079498, 0.3084925413131714, 0.5609501600265503, 0.016087234020233154, -0.6965139508247375, -0.11670061200857162, -0.4331338405609131, 1.322959303855896, -0.19647261500358582, 1.36740243434906, 1.0169388055801392, -0.051745105534791946, 0.26279887557029724, 0.38732701539993286, 1.5485047101974487, 0.7383111119270325, 1.2031686305999756, 0.8360989093780518, 1.479421615600586, 1.5993465185165405, 2.4474802017211914, -0.11814410984516144, -1.7955105304718018, -0.0019320666324347258, -0.2902076244354248, -0.6156072616577148, -1.0517903566360474
1.0467766523361206, -0.358869731426239, 0.23282063007354736, -1.0092368125915527, 0.8950583338737488, -0.18267522752285004, -0.4832214117050171, 1.6280088424682617, 0.6401540040969849, 0.5861693620681763, 0.18374107778072357, -0.2692888677120209, 0.6494358777999878, -0.38549816608428955, -0.1899663507938385, -0.9074257612228394, 0.12299948930740356, -0.1445653736591339, -1.9050776958465576, -1.346242904663086, 0.0024684276431798935, 0.6228085160255432, -1.3839068412780762, -0.42579180002212524, 0.6229009628295898, -1.0914820432662964, 0.8378479480743408, 0.17591680586338043, 1.5447624921798706, -0.6933220624923706, 0.09682124853134155, 1.0448668003082275, 0.5814398527145386, 0.93653804063797, -1.6732219457626343, -1.139371633529663, 0.14133886992931366, 1.6349611282348633, -1.224311113357544, 1.7281584739685059, 0.34542739391326904, 3.987093925476074, 0.5746237635612488, 1.5286811590194702, -0.7633049488067627, 1.3019946813583374, -1.0722185373306274, -0.529241681098938, -0.8455607891082764, 0.5048900246620178, 0.6629831194877625, 0.3568074107170105, 0.9956405162811279, -0.732183575630188, 1.1969890594482422, -0.1826978474855423, 0.22117242217063904, 0.33269238471984863, -0.00598846236243844, -1.0939204692840576, 0.35771146416664124, 0.6075030565261841, -0.7929309606552124
1.5269578695297241, 0.634976863861084, 0.8323349952697754, -0.12213951349258423, 0.6797463893890381, 0.14892002940177917, -0.6497825384140015, 0.49952176213264465, -0.42695608735084534, -0.38608211278915405, 0.25341957807540894, -0.9375713467597961, 0.6435792446136475, -0.8091938495635986, 0.33082008361816406, 0.07106590270996094, -2.0043349266052246, -0.24633090198040009, -0.8785749077796936, 0.7074901461601257, -0.8332471251487732, 0.2651204466819763, -0.11478512734174728, -2.1736574172973633, 0.6740082502365112, 0.24800658226013184, -0.763430118560791, 0.1281842291355133, -0.3258044123649597, -0.44127658009529114, -0.08451461791992188, 0.7223547101020813, 0.7014516592025757, -0.4358392357826233, -0.1412784904241562, 0.8007347583770752, -0.4014613628387451, 3.017413854598999, -0.5666914582252502, -1.2566380500793457, 0.6660287976264954, 1.9572309255599976, 0.6828329563140869, 0.6875283122062683, 2.160357713699341, 2.403789758682251, -2.2005462646484375, 1.0486193895339966, 0.2780880630016327, -0.9210143089294434, 1.7667521238327026, 1.6919885873794556, -0.5592201352119446, 0.15789031982421875, -0.4211222231388092, -0.7192462682723999, 0.203703835606575, -1.243545651435852, 0.5010921955108643, -1.6770219802856445, 0.9177358746528625, -0.30882155895233154, 1.1383185386657715
0.045387789607048035, 0.24086445569992065, 1.9803221225738525, 1.0912082195281982, 0.30863121151924133, 0.6917276978492737, -0.48599526286125183, -0.7638340592384338, -0.3057135343551636, -0.48296552896499634, -1.578967571258545, -0.6131457090377808, 0.5382532477378845, 0.17283113300800323, 0.711067795753479, 0.05722816288471222, 0.8454056978225708, -0.32301533222198486, 0.6505358815193176, -0.7016618847846985, 0.7630337476730347, -0.6094837784767151, 0.7756205797195435, -2.158428192138672, -0.5793107151985168, 0.1589181125164032, -0.9829259514808655, 1.0068453550338745, 0.7595299482345581, 0.18143188953399658, -0.6738962531089783, -0.01633787900209427, 0.10253147035837173, 0.15266014635562897, -1.5645925998687744, -0.1010417714715004, -0.6037033200263977, 0.12254812568426132, -0.5864686965942383, -0.2883754372596741, -1.626461386680603, 1.5720127820968628, -0.07132821530103683, -0.2652374505996704, 0.4372336268424988, -0.28705283999443054, -2.11037278175354, 0.46142399311065674, -1.209735631942749, -1.7254632711410522, -0.48123699426651, -0.6324101090431213, -1.0955491065979004, -0.5350435376167297, 1.0573880672454834, -0.06853318214416504, 1.196445345878601, 0.4536326229572296, -1.1260008811950684, 1.1808269023895264, -1.2159132957458496, -1.0922536849975586, 0.8592912554740906
5.427506923675537, 0.7695294618606567, 1.257264494895935, -1.0505090951919556, 0.7157009243965149, 1.175628423690796, -0.6310678720474243, 0.5007827877998352, -2.2886877059936523, 1.2531379461288452, 0.24611130356788635, -0.7296859622001648, -0.9708855152130127, -0.04110971465706825, -1.220292091369629, 1.3193528652191162, 1.0403553247451782, 0.26446107029914856, -0.11678162217140198, -1.2117494344711304, -0.6247508525848389, 0.3157688081264496, 0.19064383208751678, 0.5468173623085022, 0.12607324123382568, 1.533793330192566, 0.13437849283218384, -0.3937903940677643, 0.8536825776100159, -3.181243896484375, 0.4936715066432953, -1.6649335622787476, 0.45049774646759033, 1.0524793863296509, 1.056473731994629, -0.6489455699920654, -0.8596348166465759, -0.21799831092357635, -0.7236036062240601, 0.4099302887916565, 0.7597627639770508, -0.11841032654047012, -0.6687429547309875, 0.39442741870880127, 0.15871894359588623, -0.5304847955703735, 1.1235569715499878, -0.4457400143146515, 1.7258903980255127, 1.2291162014007568, 0.8747919797897339, 2.611388921737671, -0.6003738045692444, -0.13947638869285583, 1.6600079536437988, 1.2224394083023071, -0.49670687317848206, 0.7494562268257141, 0.3150632977485657, 0.5818350315093994, -0.2402479201555252, 0.674767255783081, -1.7704041004180908
1.1766316890716553, 0.5560261607170105, -0.1070253774523735, 0.4438939094543457, 0.1565394252538681, -1.615805745124817, 0.8717368245124817, 0.17308995127677917, -2.052015542984009, 0.9332645535469055, 1.0125006437301636, -1.2548043727874756, 0.1769072264432907, 0.12151703983545303, -1.9570080041885376, -0.6827452778816223, 1.2748032808303833, -1.1719156503677368, 2.1057324409484863, 0.3519836366176605, -1.784073829650879, 1.4106261730194092, 0.6201441287994385, -1.0669074058532715, -0.8563804626464844, 0.6028687357902527, -0.011002234183251858, 1.798079252243042, -1.2564525604248047, -1.0354299545288086, -0.9426267743110657, 0.6318433284759521, 1.5823791027069092, 0.17557378113269806, 1.6350444555282593, -0.11591369658708572, 0.7563393115997314, -0.5681143999099731, 0.1438109576702118, 1.2093781232833862, 1.5056451559066772, 1.642346739768982, -0.37444132566452026, -0.16162021458148956, 0.12104323506355286, -1.656792402267456, 0.9361292123794556, 1.5304300785064697, 0.5296027064323425, -0.15607409179210663, 0.30656111240386963, 1.2579915523529053, 0.15623070299625397, -0.09484577924013138, -0.7999921441078186, 0.3192482590675354, 1.716551661491394, -1.120103120803833, 0.9873471856117249, 1.068261981010437, -1.4259302616119385, -1.3760268688201904, -0.4216984212398529
